<?xml version="1.0"?>
<MethodSetup Method="DL::DNN_CPU">
  <GeneralInfo>
    <Info name="TMVA Release" value="4.2.1 [262657]"/>
    <Info name="ROOT Release" value="6.30/04 [400900]"/>
    <Info name="Creator" value="todiotal"/>
    <Info name="Date" value="Sun Feb  9 23:52:46 2025"/>
    <Info name="Host" value="Linux alma9-docker 4.18.0-477.13.1.el8_8.x86_64 #1 SMP Tue May 30 14:53:41 EDT 2023 x86_64 x86_64 x86_64 GNU/Linux"/>
    <Info name="Dir" value="/eos/home-i00/t/todiotal/SWAN_projects/TMVA_Higgs_Classification.py.nbconvert"/>
    <Info name="Training events" value="14000"/>
    <Info name="TrainingTime" value="1.86613259e+01"/>
    <Info name="AnalysisType" value="Classification"/>
  </GeneralInfo>
  <Options>
    <Option name="V" modified="Yes">True</Option>
    <Option name="VerbosityLevel" modified="No">Verbose</Option>
    <Option name="VarTransform" modified="Yes">G</Option>
    <Option name="H" modified="Yes">False</Option>
    <Option name="CreateMVAPdfs" modified="No">False</Option>
    <Option name="IgnoreNegWeightsInTraining" modified="No">False</Option>
    <Option name="InputLayout" modified="Yes">1|1|7</Option>
    <Option name="BatchLayout" modified="Yes">1|128|7</Option>
    <Option name="Layout" modified="Yes">DENSE|64|TANH,DENSE|64|TANH,DENSE|64|TANH,DENSE|64|TANH,DENSE|1|LINEAR</Option>
    <Option name="ErrorStrategy" modified="Yes">CROSSENTROPY</Option>
    <Option name="WeightInitialization" modified="Yes">XAVIER</Option>
    <Option name="RandomSeed" modified="No">0</Option>
    <Option name="ValidationSize" modified="No">20%</Option>
    <Option name="Architecture" modified="Yes">CPU</Option>
    <Option name="TrainingStrategy" modified="Yes">LearningRate=1e-3,Momentum=0.9,ConvergenceSteps=10,BatchSize=128,TestRepetitions=1,MaxEpochs=20,WeightDecay=1e-4,Regularization=None,Optimizer=ADAM,ADAM_beta1=0.9,ADAM_beta2=0.999,ADAM_eps=1.E-7,DropConfig=0.0+0.0+0.0+0.</Option>
  </Options>
  <Variables NVar="7">
    <Variable VarIndex="0" Expression="m_jj" Label="m_jj" Title="m_jj" Unit="" Internal="m_jj" Type="F" Min="1.46605730e-01" Max="1.30981255e+01"/>
    <Variable VarIndex="1" Expression="m_jjj" Label="m_jjj" Title="m_jjj" Unit="" Internal="m_jjj" Type="F" Min="3.42014521e-01" Max="7.39196777e+00"/>
    <Variable VarIndex="2" Expression="m_lv" Label="m_lv" Title="m_lv" Unit="" Internal="m_lv" Type="F" Min="2.66787767e-01" Max="3.68225980e+00"/>
    <Variable VarIndex="3" Expression="m_jlv" Label="m_jlv" Title="m_jlv" Unit="" Internal="m_jlv" Type="F" Min="3.84410560e-01" Max="6.58312130e+00"/>
    <Variable VarIndex="4" Expression="m_bb" Label="m_bb" Title="m_bb" Unit="" Internal="m_bb" Type="F" Min="9.34824944e-02" Max="7.85979414e+00"/>
    <Variable VarIndex="5" Expression="m_wbb" Label="m_wbb" Title="m_wbb" Unit="" Internal="m_wbb" Type="F" Min="3.85025799e-01" Max="4.54251242e+00"/>
    <Variable VarIndex="6" Expression="m_wwbb" Label="m_wwbb" Title="m_wwbb" Unit="" Internal="m_wwbb" Type="F" Min="4.32279825e-01" Max="4.07281733e+00"/>
  </Variables>
  <Spectators NSpec="0"/>
  <Classes NClass="2">
    <Class Name="Signal" Index="0"/>
    <Class Name="Background" Index="1"/>
  </Classes>
  <Transformations NTransformations="1">
    <Transform Name="Gauss" FlatOrGauss="Gauss">
      <Selection>
        <Input NInputs="7">
          <Input Type="Variable" Label="m_jj" Expression="m_jj"/>
          <Input Type="Variable" Label="m_jjj" Expression="m_jjj"/>
          <Input Type="Variable" Label="m_lv" Expression="m_lv"/>
          <Input Type="Variable" Label="m_jlv" Expression="m_jlv"/>
          <Input Type="Variable" Label="m_bb" Expression="m_bb"/>
          <Input Type="Variable" Label="m_wbb" Expression="m_wbb"/>
          <Input Type="Variable" Label="m_wwbb" Expression="m_wwbb"/>
        </Input>
        <Output NOutputs="7">
          <Output Type="Variable" Label="m_jj" Expression="m_jj"/>
          <Output Type="Variable" Label="m_jjj" Expression="m_jjj"/>
          <Output Type="Variable" Label="m_lv" Expression="m_lv"/>
          <Output Type="Variable" Label="m_jlv" Expression="m_jlv"/>
          <Output Type="Variable" Label="m_bb" Expression="m_bb"/>
          <Output Type="Variable" Label="m_wbb" Expression="m_wbb"/>
          <Output Type="Variable" Label="m_wwbb" Expression="m_wwbb"/>
        </Output>
      </Selection>
      <Variable VarIndex="0">
        <CumulativePDF_cls0>
          <PDF Name="GaussTransform var0 cls0" MinNSmooth="0" MaxNSmooth="0" InterpolMethod="1" KDE_type="0" KDE_iter="1" KDE_border="1" KDE_finefactor="0.0000000000000000e+00">
            <Histogram Name="Cumulative_Var0_cls0_original" NBins="701" XMin="1.5095862746238708e-01" XMax="1.3098125457763672e+01" HasEquidistantBins="0">
              1.03479042e-03 2.31935782e-03 3.73773417e-03 5.17395185e-03 6.60124887e-03 8.02854635e-03 9.45584290e-03 1.08831404e-02 1.23104369e-02 1.37377344e-02 1.51650310e-02 1.65923275e-02 1.80196259e-02 1.94469225e-02 2.08742190e-02 2.23015174e-02 2.37288140e-02 2.51561105e-02 2.65834071e-02 2.80107055e-02 2.94380020e-02 3.08652986e-02 3.22925970e-02 3.37198935e-02 3.51471901e-02 3.65744866e-02 3.80017832e-02 3.94290797e-02 4.08563800e-02 4.22836766e-02 4.37109731e-02 4.51382697e-02 4.65655662e-02 4.79928628e-02 4.94201593e-02 5.08474559e-02 5.22747561e-02 5.37020527e-02 5.51293492e-02 5.65566458e-02 5.79839423e-02 5.94112389e-02 6.08385354e-02 6.22658357e-02 6.36931285e-02 6.51204288e-02 6.65477216e-02 6.79750219e-02 6.94023222e-02 7.08296150e-02 7.22569153e-02 7.36842081e-02 7.51115084e-02 7.65388012e-02 7.79661015e-02 7.93934017e-02 8.08206946e-02 8.22479948e-02 8.36752877e-02 8.51025879e-02 8.65298808e-02 8.79571810e-02 8.93844813e-02 9.08117741e-02 9.22390744e-02 9.36663672e-02 9.50936675e-02 9.65209603e-02 9.79482606e-02 9.93755609e-02 1.00802854e-01 1.02230154e-01 1.03657447e-01 1.05084747e-01 1.06512040e-01 1.07939340e-01 1.09366640e-01 1.10793933e-01 1.12221234e-01 1.13648526e-01 1.15075827e-01 1.16503119e-01 1.17930420e-01 1.19357720e-01 1.20785013e-01 1.22212313e-01 1.23639606e-01 1.25066906e-01 1.26494199e-01 1.27921492e-01 1.29348800e-01 1.30776092e-01 1.32203385e-01 1.33630693e-01 1.35057986e-01 1.36485279e-01 1.37912571e-01 1.39339879e-01 1.40767172e-01 1.42194465e-01 1.43621773e-01 1.45049065e-01 1.46476358e-01 1.47903651e-01 1.49330959e-01 1.50758252e-01 1.52185544e-01 1.53612852e-01 1.55040145e-01 1.56467438e-01 1.57894731e-01 1.59322038e-01 1.60749331e-01 1.62176624e-01 1.63603932e-01 1.65031224e-01 1.66458517e-01 1.67885810e-01 1.69313118e-01 1.70740411e-01 1.72167704e-01 1.73595011e-01 1.75022304e-01 1.76449597e-01 1.77876890e-01 1.79304197e-01 1.80731490e-01 1.82158783e-01 1.83586091e-01 1.85013384e-01 1.86440676e-01 1.87867969e-01 1.89295277e-01 1.90722570e-01 1.92149863e-01 1.93577170e-01 1.95004463e-01 1.96431756e-01 1.97859049e-01 1.99286357e-01 2.00713649e-01 2.02140942e-01 2.03568250e-01 2.04995543e-01 2.06422836e-01 2.07850128e-01 2.09277436e-01 2.10704729e-01 2.12132022e-01 2.13559315e-01 2.14986622e-01 2.16413915e-01 2.17841208e-01 2.19268516e-01 2.20695809e-01 2.22123101e-01 2.23550394e-01 2.24977702e-01 2.26404995e-01 2.27832288e-01 2.29259595e-01 2.30686888e-01 2.32114181e-01 2.33541474e-01 2.34968781e-01 2.36396074e-01 2.37823367e-01 2.39250675e-01 2.40677968e-01 2.42105260e-01 2.43532553e-01 2.44959861e-01 2.46387154e-01 2.47814447e-01 2.49241754e-01 2.50669032e-01 2.52096355e-01 2.53523648e-01 2.54950941e-01 2.56378233e-01 2.57805526e-01 2.59232819e-01 2.60660112e-01 2.62087435e-01 2.63514727e-01 2.64942020e-01 2.66369313e-01 2.67796606e-01 2.69223899e-01 2.70651191e-01 2.72078514e-01 2.73505807e-01 2.74933100e-01 2.76360393e-01 2.77787685e-01 2.79214978e-01 2.80642271e-01 2.82069594e-01 2.83496886e-01 2.84924179e-01 2.86351472e-01 2.87778765e-01 2.89206058e-01 2.90633351e-01 2.92060673e-01 2.93487966e-01 2.94915259e-01 2.96342552e-01 2.97769845e-01 2.99197137e-01 3.00624430e-01 3.02051753e-01 3.03479046e-01 3.04906338e-01 3.06333631e-01 3.07760924e-01 3.09188217e-01 3.10615510e-01 3.12042832e-01 3.13470125e-01 3.14897418e-01 3.16324711e-01 3.17752004e-01 3.19179296e-01 3.20606589e-01 3.22033912e-01 3.23461205e-01 3.24888498e-01 3.26315790e-01 3.27743083e-01 3.29170376e-01 3.30597669e-01 3.32024992e-01 3.33452284e-01 3.34879577e-01 3.36306870e-01 3.37734163e-01 3.39161456e-01 3.40588748e-01 3.42016071e-01 3.43443364e-01 3.44870657e-01 3.46297950e-01 3.47725242e-01 3.49152535e-01 3.50579828e-01 3.52007151e-01 3.53434443e-01 3.54861736e-01 3.56289029e-01 3.57716322e-01 3.59143615e-01 3.60570908e-01 3.61998230e-01 3.63425523e-01 3.64852816e-01 3.66280109e-01 3.67707402e-01 3.69134694e-01 3.70561987e-01 3.71989310e-01 3.73416603e-01 3.74843895e-01 3.76271188e-01 3.77698481e-01 3.79125774e-01 3.80553067e-01 3.81980389e-01 3.83407682e-01 3.84834975e-01 3.86262268e-01 3.87689561e-01 3.89116853e-01 3.90544146e-01 3.91971469e-01 3.93398762e-01 3.94826055e-01 3.96253347e-01 3.97680640e-01 3.99107933e-01 4.00535226e-01 4.01962519e-01 4.03389841e-01 4.04817134e-01 4.06244427e-01 4.07671720e-01 4.09099013e-01 4.10526305e-01 4.11953598e-01 4.13380921e-01 4.14808214e-01 4.16235507e-01 4.17662799e-01 4.19090092e-01 4.20517385e-01 4.21944678e-01 4.23372000e-01 4.24799293e-01 4.26226586e-01 4.27653879e-01 4.29081172e-01 4.30508465e-01 4.31935757e-01 4.33363080e-01 4.34790373e-01 4.36217666e-01 4.37644958e-01 4.39072251e-01 4.40499544e-01 4.41926837e-01 4.43354160e-01 4.44781452e-01 4.46208745e-01 4.47636038e-01 4.49063331e-01 4.50490624e-01 4.51917917e-01 4.53345239e-01 4.54772532e-01 4.56199825e-01 4.57627118e-01 4.59054410e-01 4.60481703e-01 4.61908996e-01 4.63336319e-01 4.64763612e-01 4.66190904e-01 4.67618197e-01 4.69045490e-01 4.70472783e-01 4.71900076e-01 4.73327398e-01 4.74754691e-01 4.76181984e-01 4.77609277e-01 4.79036570e-01 4.80463862e-01 4.81891155e-01 4.83318478e-01 4.84745771e-01 4.86173064e-01 4.87600356e-01 4.89027649e-01 4.90454942e-01 4.91882235e-01 4.93309557e-01 4.94736850e-01 4.96164143e-01 4.97591436e-01 4.99018729e-01 5.00446022e-01 5.01873314e-01 5.03300607e-01 5.04727900e-01 5.06155193e-01 5.07582545e-01 5.09009838e-01 5.10437131e-01 5.11864424e-01 5.13291717e-01 5.14719009e-01 5.16146302e-01 5.17573595e-01 5.19000888e-01 5.20428181e-01 5.21855474e-01 5.23282766e-01 5.24710059e-01 5.26137352e-01 5.27564645e-01 5.28991997e-01 5.30419290e-01 5.31846583e-01 5.33273876e-01 5.34701169e-01 5.36128461e-01 5.37555754e-01 5.38983047e-01 5.40410340e-01 5.41837633e-01 5.43264925e-01 5.44692218e-01 5.46119511e-01 5.47546804e-01 5.48974156e-01 5.50401449e-01 5.51828742e-01 5.53256035e-01 5.54683328e-01 5.56110620e-01 5.57537913e-01 5.58965206e-01 5.60392499e-01 5.61819792e-01 5.63247085e-01 5.64674377e-01 5.66101670e-01 5.67528963e-01 5.68956316e-01 5.70383608e-01 5.71810901e-01 5.73238194e-01 5.74665487e-01 5.76092780e-01 5.77520072e-01 5.78947365e-01 5.80374658e-01 5.81801951e-01 5.83229244e-01 5.84656537e-01 5.86083829e-01 5.87511122e-01 5.88938475e-01 5.90365767e-01 5.91793060e-01 5.93220353e-01 5.94647646e-01 5.96074939e-01 5.97502232e-01 5.98929524e-01 6.00356817e-01 6.01784110e-01 6.03211403e-01 6.04638696e-01 6.06065989e-01 6.07493281e-01 6.08920634e-01 6.10347927e-01 6.11775219e-01 6.13202512e-01 6.14629805e-01 6.16057098e-01 6.17484391e-01 6.18911684e-01 6.20338976e-01 6.21766269e-01 6.23193562e-01 6.24620855e-01 6.26048148e-01 6.27475441e-01 6.28902793e-01 6.30330086e-01 6.31757379e-01 6.33184671e-01 6.34611964e-01 6.36039257e-01 6.37466550e-01 6.38893843e-01 6.40321136e-01 6.41748428e-01 6.43175721e-01 6.44603014e-01 6.46030307e-01 6.47457600e-01 6.48884952e-01 6.50312245e-01 6.51739538e-01 6.53166831e-01 6.54594123e-01 6.56021416e-01 6.57448709e-01 6.58876002e-01 6.60303295e-01 6.61730587e-01 6.63157880e-01 6.64585173e-01 6.66012466e-01 6.67439759e-01 6.68867111e-01 6.70294404e-01 6.71721697e-01 6.73148990e-01 6.74576283e-01 6.76003575e-01 6.77430868e-01 6.78858161e-01 6.80285454e-01 6.81712747e-01 6.83140039e-01 6.84567332e-01 6.85994625e-01 6.87421918e-01 6.88849270e-01 6.90276563e-01 6.91703856e-01 6.93131149e-01 6.94558442e-01 6.95985734e-01 6.97413027e-01 6.98840320e-01 7.00267613e-01 7.01694906e-01 7.03122199e-01 7.04549491e-01 7.05976784e-01 7.07404077e-01 7.08831429e-01 7.10258722e-01 7.11686015e-01 7.13113308e-01 7.14540601e-01 7.15967894e-01 7.17395186e-01 7.18822479e-01 7.20249772e-01 7.21677065e-01 7.23104358e-01 7.24531651e-01 7.25958943e-01 7.27386236e-01 7.28813589e-01 7.30240881e-01 7.31668174e-01 7.33095467e-01 7.34522760e-01 7.35950053e-01 7.37377346e-01 7.38804638e-01 7.40231931e-01 7.41659224e-01 7.43086517e-01 7.44513810e-01 7.45941103e-01 7.47368395e-01 7.48795748e-01 7.50223041e-01 7.51650333e-01 7.53077626e-01 7.54504919e-01 7.55932212e-01 7.57359505e-01 7.58786798e-01 7.60214090e-01 7.61641383e-01 7.63068676e-01 7.64495969e-01 7.65923262e-01 7.67350554e-01 7.68777847e-01 7.70205200e-01 7.71632493e-01 7.73059785e-01 7.74487078e-01 7.75914371e-01 7.77341664e-01 7.78768957e-01 7.80196249e-01 7.81623542e-01 7.83050835e-01 7.84478128e-01 7.85905421e-01 7.87332714e-01 7.88760006e-01 7.90187359e-01 7.91614652e-01 7.93041945e-01 7.94469237e-01 7.95896530e-01 7.97323823e-01 7.98751116e-01 8.00178409e-01 8.01605701e-01 8.03032994e-01 8.04460287e-01 8.05887580e-01 8.07314873e-01 8.08742166e-01 8.10169518e-01 8.11596811e-01 8.13024104e-01 8.14451396e-01 8.15878689e-01 8.17305982e-01 8.18733275e-01 8.20160568e-01 8.21587861e-01 8.23015153e-01 8.24442446e-01 8.25869739e-01 8.27297032e-01 8.28724325e-01 8.30151677e-01 8.31578970e-01 8.33006263e-01 8.34433556e-01 8.35860848e-01 8.37288141e-01 8.38715434e-01 8.40142727e-01 8.41570020e-01 8.42997313e-01 8.44424605e-01 8.45851898e-01 8.47279191e-01 8.48706484e-01 8.50133836e-01 8.51561129e-01 8.52988422e-01 8.54415715e-01 8.55843008e-01 8.57270300e-01 8.58697593e-01 8.60124886e-01 8.61552179e-01 8.62979472e-01 8.64406765e-01 8.65834057e-01 8.67261350e-01 8.68688643e-01 8.70115995e-01 8.71543288e-01 8.72970581e-01 8.74397874e-01 8.75825167e-01 8.77252460e-01 8.78679752e-01 8.80107045e-01 8.81534338e-01 8.82961631e-01 8.84388924e-01 8.85816216e-01 8.87243509e-01 8.88670802e-01 8.90098155e-01 8.91525447e-01 8.92952740e-01 8.94380033e-01 8.95807326e-01 8.97234619e-01 8.98661911e-01 9.00089204e-01 9.01516497e-01 9.02943790e-01 9.04371083e-01 9.05798376e-01 9.07225668e-01 9.08652961e-01 9.10080314e-01 9.11507607e-01 9.12934899e-01 9.14362192e-01 9.15789485e-01 9.17216778e-01 9.18644071e-01 9.20071363e-01 9.21498656e-01 9.22925949e-01 9.24353242e-01 9.25780535e-01 9.27207828e-01 9.28635120e-01 9.30062473e-01 9.31489766e-01 9.32917058e-01 9.34344351e-01 9.35771644e-01 9.37198937e-01 9.38626230e-01 9.40053523e-01 9.41480815e-01 9.42908108e-01 9.44335401e-01 9.45762694e-01 9.47189987e-01 9.48617280e-01 9.50044632e-01 9.51471925e-01 9.52899218e-01 9.54326510e-01 9.55753803e-01 9.57181096e-01 9.58608389e-01 9.60035682e-01 9.61462975e-01 9.62890267e-01 9.64317560e-01 9.65744853e-01 9.67172146e-01 9.68599439e-01 9.70026791e-01 9.71454084e-01 9.72881377e-01 9.74308670e-01 9.75735962e-01 9.77163255e-01 9.78590548e-01 9.80017841e-01 9.81445134e-01 9.82872427e-01 9.84299719e-01 9.85727012e-01 9.87154305e-01 9.88581598e-01 9.90008950e-01 9.91436243e-01 9.92863536e-01 9.94290829e-01 9.95718122e-01 9.97145414e-01 9.98572707e-01 1.00000000e+00 
            </Histogram>
            <HistogramBinning NBins="701">
              1.50958627e-01 1.51058629e-01 2.35809594e-01 2.54540265e-01 2.79543728e-01 2.96367824e-01 3.05752546e-01 3.15158933e-01 3.27944040e-01 3.42721283e-01 3.62747312e-01 3.71029377e-01 3.79033178e-01 3.85051697e-01 3.97627026e-01 4.00356889e-01 4.14017737e-01 4.27861065e-01 4.37949359e-01 4.42124009e-01 4.48838115e-01 4.54418808e-01 4.60780591e-01 4.70164150e-01 4.73770916e-01 4.81530696e-01 4.86251593e-01 4.92321432e-01 4.97674048e-01 5.01165628e-01 5.05263925e-01 5.13874412e-01 5.19849539e-01 5.23586392e-01 5.26413143e-01 5.29795289e-01 5.34577727e-01 5.41091204e-01 5.44888437e-01 5.48858941e-01 5.53083777e-01 5.56930065e-01 5.60079575e-01 5.63094556e-01 5.65264523e-01 5.69025278e-01 5.71091473e-01 5.75575173e-01 5.77499986e-01 5.79475045e-01 5.84494650e-01 5.87954342e-01 5.90720713e-01 5.94072044e-01 6.00095212e-01 6.03472769e-01 6.05046391e-01 6.08354449e-01 6.10889316e-01 6.13068461e-01 6.16041243e-01 6.18660510e-01 6.21278644e-01 6.24206960e-01 6.27389550e-01 6.31918848e-01 6.34505033e-01 6.38247550e-01 6.40939772e-01 6.42720938e-01 6.45462275e-01 6.46985710e-01 6.49009764e-01 6.50920928e-01 6.54423952e-01 6.55972481e-01 6.58192635e-01 6.60668254e-01 6.62813187e-01 6.64485991e-01 6.67751789e-01 6.69684649e-01 6.73246980e-01 6.75252736e-01 6.76454663e-01 6.78431928e-01 6.81117356e-01 6.82852924e-01 6.84065044e-01 6.85485840e-01 6.87002480e-01 6.89783692e-01 6.92393839e-01 6.95080400e-01 6.96764588e-01 6.98723674e-01 7.00785339e-01 7.02011168e-01 7.03666866e-01 7.04588234e-01 7.05033004e-01 7.06133366e-01 7.07816482e-01 7.09172308e-01 7.11455226e-01 7.13492930e-01 7.14527190e-01 7.15407491e-01 7.16503322e-01 7.17850029e-01 7.19591260e-01 7.20883250e-01 7.22294927e-01 7.23710060e-01 7.24377155e-01 7.25785434e-01 7.27027178e-01 7.28419542e-01 7.29004502e-01 7.29703546e-01 7.30681837e-01 7.31518865e-01 7.32815385e-01 7.33877063e-01 7.34874725e-01 7.36377716e-01 7.37458706e-01 7.39079118e-01 7.40124762e-01 7.41013110e-01 7.42029071e-01 7.43603826e-01 7.44631290e-01 7.45373547e-01 7.46219695e-01 7.46993959e-01 7.47976899e-01 7.49528885e-01 7.51352251e-01 7.53080904e-01 7.54952192e-01 7.55562186e-01 7.56770968e-01 7.58202016e-01 7.59058416e-01 7.60255754e-01 7.61489570e-01 7.62695968e-01 7.64257073e-01 7.64751911e-01 7.65553653e-01 7.67184258e-01 7.67850101e-01 7.68489897e-01 7.69582272e-01 7.71011114e-01 7.72529960e-01 7.73382962e-01 7.73731828e-01 7.74451375e-01 7.75759339e-01 7.76521087e-01 7.78347790e-01 7.79623806e-01 7.80843973e-01 7.81643271e-01 7.82397032e-01 7.83808768e-01 7.84580708e-01 7.85672009e-01 7.86870480e-01 7.87475944e-01 7.88174987e-01 7.89372325e-01 7.90708721e-01 7.91516066e-01 7.92814851e-01 7.93981433e-01 7.94745445e-01 7.95610905e-01 7.96334982e-01 7.97426283e-01 7.98451364e-01 7.99176633e-01 7.99962282e-01 8.01168799e-01 8.01960111e-01 8.02549720e-01 8.03046823e-01 8.04154038e-01 8.05021882e-01 8.05979729e-01 8.06486070e-01 8.07161093e-01 8.07894289e-01 8.08235228e-01 8.08892071e-01 8.09774697e-01 8.10643554e-01 8.11284423e-01 8.12162459e-01 8.13121438e-01 8.13509166e-01 8.13907087e-01 8.14847887e-01 8.15462530e-01 8.16357672e-01 8.16779554e-01 8.17362249e-01 8.17664504e-01 8.18409085e-01 8.19455862e-01 8.19968998e-01 8.20542574e-01 8.21566522e-01 8.22029531e-01 8.22580338e-01 8.23443532e-01 8.23973775e-01 8.24755967e-01 8.25302243e-01 8.25678527e-01 8.26106131e-01 8.26645494e-01 8.27466488e-01 8.28087926e-01 8.28994572e-01 8.29541862e-01 8.29984307e-01 8.30891967e-01 8.31264853e-01 8.31943333e-01 8.32347035e-01 8.32846463e-01 8.33525002e-01 8.34317446e-01 8.34861398e-01 8.35503399e-01 8.35913897e-01 8.36318672e-01 8.36644828e-01 8.37181866e-01 8.37827325e-01 8.38305116e-01 8.38681400e-01 8.39194596e-01 8.40291560e-01 8.40565145e-01 8.40966582e-01 8.41406763e-01 8.41988266e-01 8.42401087e-01 8.42991829e-01 8.43941689e-01 8.44719350e-01 8.45222175e-01 8.45909834e-01 8.46745610e-01 8.47385406e-01 8.48021626e-01 8.48533690e-01 8.48864377e-01 8.49268079e-01 8.49855304e-01 8.50396931e-01 8.50837052e-01 8.51480246e-01 8.51761878e-01 8.52240801e-01 8.52588594e-01 8.53061795e-01 8.53723168e-01 8.54148507e-01 8.54467750e-01 8.54977489e-01 8.55567098e-01 8.56003821e-01 8.56779218e-01 8.57073367e-01 8.57888758e-01 8.58692706e-01 8.59249115e-01 8.59948158e-01 8.60530794e-01 8.60966384e-01 8.61235559e-01 8.61713350e-01 8.62494409e-01 8.63037229e-01 8.63818288e-01 8.64224315e-01 8.64643872e-01 8.64963174e-01 8.65472913e-01 8.65623415e-01 8.66198123e-01 8.67004335e-01 8.67574513e-01 8.67986143e-01 8.68368149e-01 8.68824244e-01 8.69595170e-01 8.70144725e-01 8.70711446e-01 8.71665895e-01 8.72393489e-01 8.72971594e-01 8.73258948e-01 8.73920262e-01 8.74398053e-01 8.74682069e-01 8.75253260e-01 8.75708282e-01 8.76060605e-01 8.76938701e-01 8.77468944e-01 8.77850950e-01 8.78230631e-01 8.78791690e-01 8.79156530e-01 8.79754126e-01 8.80505562e-01 8.80864739e-01 8.81612778e-01 8.82155538e-01 8.82552445e-01 8.82940114e-01 8.83485138e-01 8.83888841e-01 8.84355247e-01 8.84917438e-01 8.85228693e-01 8.86123836e-01 8.86472762e-01 8.87110233e-01 8.87709975e-01 8.88479710e-01 8.89038444e-01 8.89614344e-01 8.89851511e-01 8.90226662e-01 8.90758038e-01 8.91208470e-01 8.91714752e-01 8.92427444e-01 8.92883599e-01 8.93182337e-01 8.93851697e-01 8.94441187e-01 8.95051360e-01 8.95613432e-01 8.96160841e-01 8.96746933e-01 8.97253275e-01 8.97732198e-01 8.98355901e-01 8.98892999e-01 8.99459720e-01 9.00131345e-01 9.00773406e-01 9.00999188e-01 9.01837289e-01 9.02547657e-01 9.03214753e-01 9.03693676e-01 9.04073417e-01 9.04898942e-01 9.05512452e-01 9.05919552e-01 9.06245708e-01 9.06619668e-01 9.07325625e-01 9.08006370e-01 9.08204734e-01 9.08741832e-01 9.09526289e-01 9.10044014e-01 9.10394132e-01 9.10751104e-01 9.11039591e-01 9.11424994e-01 9.11658704e-01 9.12256241e-01 9.12963271e-01 9.13503706e-01 9.13971245e-01 9.14557338e-01 9.15153742e-01 9.15567636e-01 9.16121840e-01 9.16574597e-01 9.17047858e-01 9.17529047e-01 9.18176770e-01 9.18587208e-01 9.18887079e-01 9.19265687e-01 9.19907689e-01 9.20507491e-01 9.21090245e-01 9.21516716e-01 9.21959102e-01 9.22270477e-01 9.22583997e-01 9.23194051e-01 9.23660457e-01 9.24260259e-01 9.24727798e-01 9.25413072e-01 9.25829291e-01 9.26264882e-01 9.27068830e-01 9.27794099e-01 9.28259313e-01 9.28849995e-01 9.29306090e-01 9.29772496e-01 9.30323303e-01 9.30844426e-01 9.31734920e-01 9.32267427e-01 9.32684839e-01 9.33049738e-01 9.33749914e-01 9.34355438e-01 9.34862792e-01 9.35138762e-01 9.35706675e-01 9.36136544e-01 9.36450183e-01 9.37243760e-01 9.37840104e-01 9.38561976e-01 9.38956499e-01 9.39445674e-01 9.40274715e-01 9.40879047e-01 9.41617966e-01 9.42785621e-01 9.43339825e-01 9.43997800e-01 9.44796026e-01 9.45509851e-01 9.46085691e-01 9.46369648e-01 9.47160959e-01 9.47861135e-01 9.48927402e-01 9.49531674e-01 9.50573921e-01 9.51188564e-01 9.51854527e-01 9.52456594e-01 9.53055263e-01 9.53631103e-01 9.54192102e-01 9.54981267e-01 9.56179678e-01 9.57312047e-01 9.57935750e-01 9.58804667e-01 9.59555030e-01 9.60535705e-01 9.61063564e-01 9.61695373e-01 9.62596238e-01 9.63160694e-01 9.63828802e-01 9.64453757e-01 9.65218902e-01 9.65701222e-01 9.66660261e-01 9.67569053e-01 9.68097031e-01 9.69163239e-01 9.70213473e-01 9.70782459e-01 9.71809864e-01 9.72734690e-01 9.73637819e-01 9.74325359e-01 9.75426912e-01 9.76132751e-01 9.77051795e-01 9.77731466e-01 9.79010940e-01 9.79666531e-01 9.80792046e-01 9.81765926e-01 9.82576668e-01 9.83780801e-01 9.84746635e-01 9.86157179e-01 9.87121880e-01 9.87857342e-01 9.89247441e-01 9.89741147e-01 9.91172254e-01 9.92313683e-01 9.93148446e-01 9.94161010e-01 9.95387971e-01 9.96706128e-01 9.97820258e-01 9.98683453e-01 9.99314010e-01 1.00072575e+00 1.00158560e+00 1.00256395e+00 1.00391519e+00 1.00498474e+00 1.00645125e+00 1.00800776e+00 1.00899637e+00 1.01019835e+00 1.01185513e+00 1.01342762e+00 1.01488602e+00 1.01596487e+00 1.01763189e+00 1.01969934e+00 1.02052033e+00 1.02224445e+00 1.02412260e+00 1.02487171e+00 1.02618074e+00 1.02809536e+00 1.02972484e+00 1.03106022e+00 1.03229177e+00 1.03325987e+00 1.03439331e+00 1.03621662e+00 1.03810382e+00 1.03988731e+00 1.04121578e+00 1.04347360e+00 1.04612362e+00 1.04743612e+00 1.05017519e+00 1.05311942e+00 1.05577064e+00 1.05841959e+00 1.06091452e+00 1.06243908e+00 1.06404579e+00 1.06601286e+00 1.06772900e+00 1.06983173e+00 1.07086825e+00 1.07318759e+00 1.07709312e+00 1.07948899e+00 1.08260310e+00 1.08484387e+00 1.08820772e+00 1.09039021e+00 1.09485686e+00 1.09730506e+00 1.10033143e+00 1.10188234e+00 1.10350609e+00 1.10488808e+00 1.10679924e+00 1.10921443e+00 1.11162269e+00 1.11487377e+00 1.11767328e+00 1.12004507e+00 1.12326980e+00 1.12694395e+00 1.13059175e+00 1.13521230e+00 1.13846445e+00 1.14347613e+00 1.14606452e+00 1.15042055e+00 1.15231347e+00 1.15596247e+00 1.15986228e+00 1.16442347e+00 1.16654456e+00 1.17092323e+00 1.17694402e+00 1.18246317e+00 1.18517709e+00 1.19076467e+00 1.19602144e+00 1.20042300e+00 1.20253253e+00 1.20573676e+00 1.21058309e+00 1.21346807e+00 1.21740222e+00 1.22058356e+00 1.22439218e+00 1.22979724e+00 1.23537338e+00 1.24211264e+00 1.24611509e+00 1.25497520e+00 1.26426876e+00 1.26947999e+00 1.27444029e+00 1.28271890e+00 1.28920722e+00 1.29901385e+00 1.30669951e+00 1.31193352e+00 1.31839895e+00 1.33148980e+00 1.33800089e+00 1.34582341e+00 1.35039604e+00 1.35512829e+00 1.36000884e+00 1.37111533e+00 1.37637222e+00 1.38918924e+00 1.39771867e+00 1.40684116e+00 1.41797054e+00 1.42648864e+00 1.43854165e+00 1.44373012e+00 1.45269287e+00 1.46481431e+00 1.47096050e+00 1.48515749e+00 1.49079049e+00 1.50253570e+00 1.51334584e+00 1.52084887e+00 1.53558171e+00 1.54918551e+00 1.55865014e+00 1.56557190e+00 1.57779586e+00 1.58401048e+00 1.59666789e+00 1.61255240e+00 1.62517560e+00 1.63387609e+00 1.64412749e+00 1.65573585e+00 1.66575909e+00 1.68000150e+00 1.69460881e+00 1.70773375e+00 1.71850955e+00 1.73661780e+00 1.75570643e+00 1.76740599e+00 1.80083966e+00 1.82039607e+00 1.83744359e+00 1.86067164e+00 1.87606561e+00 1.88816440e+00 1.90748119e+00 1.92619359e+00 1.94627428e+00 1.96255791e+00 1.97787225e+00 1.99894500e+00 2.01726985e+00 2.04194617e+00 2.07395434e+00 2.10621357e+00 2.13078713e+00 2.17066383e+00 2.19915986e+00 2.22442913e+00 2.24843264e+00 2.27797794e+00 2.33601952e+00 2.36995506e+00 2.41816735e+00 2.43706203e+00 2.46653891e+00 2.50613046e+00 2.57419538e+00 2.60987544e+00 2.66239810e+00 2.73085046e+00 2.77376008e+00 2.86464262e+00 2.97535491e+00 3.05950952e+00 3.20061088e+00 3.35961533e+00 3.46215153e+00 3.55164266e+00 3.76749134e+00 3.96581340e+00 4.15301752e+00 4.31734705e+00 4.59716654e+00 5.29515934e+00 5.79109001e+00 7.87591171e+00 1.30981255e+01 
            </HistogramBinning>
          </PDF>
        </CumulativePDF_cls0>
        <CumulativePDF_cls1>
          <PDF Name="GaussTransform var0 cls1" MinNSmooth="0" MaxNSmooth="0" InterpolMethod="1" KDE_type="0" KDE_iter="1" KDE_border="1" KDE_finefactor="0.0000000000000000e+00">
            <Histogram Name="Cumulative_Var0_cls1_original" NBins="701" XMin="1.4650572836399078e-01" XMax="1.0180070877075195e+01" HasEquidistantBins="0">
              1.03479042e-03 2.31935782e-03 3.73773417e-03 5.17395185e-03 6.60124887e-03 8.02854635e-03 9.45584290e-03 1.08831404e-02 1.23104369e-02 1.37377344e-02 1.51650310e-02 1.65923275e-02 1.80196259e-02 1.94469225e-02 2.08742190e-02 2.23015174e-02 2.37288140e-02 2.51561105e-02 2.65834071e-02 2.80107055e-02 2.94380020e-02 3.08652986e-02 3.22925970e-02 3.37198935e-02 3.51471901e-02 3.65744866e-02 3.80017832e-02 3.94290797e-02 4.08563800e-02 4.22836766e-02 4.37109731e-02 4.51382697e-02 4.65655662e-02 4.79928628e-02 4.94201593e-02 5.08474559e-02 5.22747561e-02 5.37020527e-02 5.51293492e-02 5.65566458e-02 5.79839423e-02 5.94112389e-02 6.08385354e-02 6.22658357e-02 6.36931285e-02 6.51204288e-02 6.65477216e-02 6.79750219e-02 6.94023222e-02 7.08296150e-02 7.22569153e-02 7.36842081e-02 7.51115084e-02 7.65388012e-02 7.79661015e-02 7.93934017e-02 8.08206946e-02 8.22479948e-02 8.36752877e-02 8.51025879e-02 8.65298808e-02 8.79571810e-02 8.93844813e-02 9.08117741e-02 9.22390744e-02 9.36663672e-02 9.50936675e-02 9.65209603e-02 9.79482606e-02 9.93755609e-02 1.00802854e-01 1.02230154e-01 1.03657447e-01 1.05084747e-01 1.06512040e-01 1.07939340e-01 1.09366640e-01 1.10793933e-01 1.12221234e-01 1.13648526e-01 1.15075827e-01 1.16503119e-01 1.17930420e-01 1.19357720e-01 1.20785013e-01 1.22212313e-01 1.23639606e-01 1.25066906e-01 1.26494199e-01 1.27921492e-01 1.29348800e-01 1.30776092e-01 1.32203385e-01 1.33630693e-01 1.35057986e-01 1.36485279e-01 1.37912571e-01 1.39339879e-01 1.40767172e-01 1.42194465e-01 1.43621773e-01 1.45049065e-01 1.46476358e-01 1.47903651e-01 1.49330959e-01 1.50758252e-01 1.52185544e-01 1.53612852e-01 1.55040145e-01 1.56467438e-01 1.57894731e-01 1.59322038e-01 1.60749331e-01 1.62176624e-01 1.63603932e-01 1.65031224e-01 1.66458517e-01 1.67885810e-01 1.69313118e-01 1.70740411e-01 1.72167704e-01 1.73595011e-01 1.75022304e-01 1.76449597e-01 1.77876890e-01 1.79304197e-01 1.80731490e-01 1.82158783e-01 1.83586091e-01 1.85013384e-01 1.86440676e-01 1.87867969e-01 1.89295277e-01 1.90722570e-01 1.92149863e-01 1.93577170e-01 1.95004463e-01 1.96431756e-01 1.97859049e-01 1.99286357e-01 2.00713649e-01 2.02140942e-01 2.03568250e-01 2.04995543e-01 2.06422836e-01 2.07850128e-01 2.09277436e-01 2.10704729e-01 2.12132022e-01 2.13559315e-01 2.14986622e-01 2.16413915e-01 2.17841208e-01 2.19268516e-01 2.20695809e-01 2.22123101e-01 2.23550394e-01 2.24977702e-01 2.26404995e-01 2.27832288e-01 2.29259595e-01 2.30686888e-01 2.32114181e-01 2.33541474e-01 2.34968781e-01 2.36396074e-01 2.37823367e-01 2.39250675e-01 2.40677968e-01 2.42105260e-01 2.43532553e-01 2.44959861e-01 2.46387154e-01 2.47814447e-01 2.49241754e-01 2.50669032e-01 2.52096355e-01 2.53523648e-01 2.54950941e-01 2.56378233e-01 2.57805526e-01 2.59232819e-01 2.60660112e-01 2.62087435e-01 2.63514727e-01 2.64942020e-01 2.66369313e-01 2.67796606e-01 2.69223899e-01 2.70651191e-01 2.72078514e-01 2.73505807e-01 2.74933100e-01 2.76360393e-01 2.77787685e-01 2.79214978e-01 2.80642271e-01 2.82069594e-01 2.83496886e-01 2.84924179e-01 2.86351472e-01 2.87778765e-01 2.89206058e-01 2.90633351e-01 2.92060673e-01 2.93487966e-01 2.94915259e-01 2.96342552e-01 2.97769845e-01 2.99197137e-01 3.00624430e-01 3.02051753e-01 3.03479046e-01 3.04906338e-01 3.06333631e-01 3.07760924e-01 3.09188217e-01 3.10615510e-01 3.12042832e-01 3.13470125e-01 3.14897418e-01 3.16324711e-01 3.17752004e-01 3.19179296e-01 3.20606589e-01 3.22033912e-01 3.23461205e-01 3.24888498e-01 3.26315790e-01 3.27743083e-01 3.29170376e-01 3.30597669e-01 3.32024992e-01 3.33452284e-01 3.34879577e-01 3.36306870e-01 3.37734163e-01 3.39161456e-01 3.40588748e-01 3.42016071e-01 3.43443364e-01 3.44870657e-01 3.46297950e-01 3.47725242e-01 3.49152535e-01 3.50579828e-01 3.52007151e-01 3.53434443e-01 3.54861736e-01 3.56289029e-01 3.57716322e-01 3.59143615e-01 3.60570908e-01 3.61998230e-01 3.63425523e-01 3.64852816e-01 3.66280109e-01 3.67707402e-01 3.69134694e-01 3.70561987e-01 3.71989310e-01 3.73416603e-01 3.74843895e-01 3.76271188e-01 3.77698481e-01 3.79125774e-01 3.80553067e-01 3.81980389e-01 3.83407682e-01 3.84834975e-01 3.86262268e-01 3.87689561e-01 3.89116853e-01 3.90544146e-01 3.91971469e-01 3.93398762e-01 3.94826055e-01 3.96253347e-01 3.97680640e-01 3.99107933e-01 4.00535226e-01 4.01962519e-01 4.03389841e-01 4.04817134e-01 4.06244427e-01 4.07671720e-01 4.09099013e-01 4.10526305e-01 4.11953598e-01 4.13380921e-01 4.14808214e-01 4.16235507e-01 4.17662799e-01 4.19090092e-01 4.20517385e-01 4.21944678e-01 4.23372000e-01 4.24799293e-01 4.26226586e-01 4.27653879e-01 4.29081172e-01 4.30508465e-01 4.31935757e-01 4.33363080e-01 4.34790373e-01 4.36217666e-01 4.37644958e-01 4.39072251e-01 4.40499544e-01 4.41926837e-01 4.43354160e-01 4.44781452e-01 4.46208745e-01 4.47636038e-01 4.49063331e-01 4.50490624e-01 4.51917917e-01 4.53345239e-01 4.54772532e-01 4.56199825e-01 4.57627118e-01 4.59054410e-01 4.60481703e-01 4.61908996e-01 4.63336319e-01 4.64763612e-01 4.66190904e-01 4.67618197e-01 4.69045490e-01 4.70472783e-01 4.71900076e-01 4.73327398e-01 4.74754691e-01 4.76181984e-01 4.77609277e-01 4.79036570e-01 4.80463862e-01 4.81891155e-01 4.83318478e-01 4.84745771e-01 4.86173064e-01 4.87600356e-01 4.89027649e-01 4.90454942e-01 4.91882235e-01 4.93309557e-01 4.94736850e-01 4.96164143e-01 4.97591436e-01 4.99018729e-01 5.00446022e-01 5.01873314e-01 5.03300607e-01 5.04727900e-01 5.06155193e-01 5.07582545e-01 5.09009838e-01 5.10437131e-01 5.11864424e-01 5.13291717e-01 5.14719009e-01 5.16146302e-01 5.17573595e-01 5.19000888e-01 5.20428181e-01 5.21855474e-01 5.23282766e-01 5.24710059e-01 5.26137352e-01 5.27564645e-01 5.28991997e-01 5.30419290e-01 5.31846583e-01 5.33273876e-01 5.34701169e-01 5.36128461e-01 5.37555754e-01 5.38983047e-01 5.40410340e-01 5.41837633e-01 5.43264925e-01 5.44692218e-01 5.46119511e-01 5.47546804e-01 5.48974156e-01 5.50401449e-01 5.51828742e-01 5.53256035e-01 5.54683328e-01 5.56110620e-01 5.57537913e-01 5.58965206e-01 5.60392499e-01 5.61819792e-01 5.63247085e-01 5.64674377e-01 5.66101670e-01 5.67528963e-01 5.68956316e-01 5.70383608e-01 5.71810901e-01 5.73238194e-01 5.74665487e-01 5.76092780e-01 5.77520072e-01 5.78947365e-01 5.80374658e-01 5.81801951e-01 5.83229244e-01 5.84656537e-01 5.86083829e-01 5.87511122e-01 5.88938475e-01 5.90365767e-01 5.91793060e-01 5.93220353e-01 5.94647646e-01 5.96074939e-01 5.97502232e-01 5.98929524e-01 6.00356817e-01 6.01784110e-01 6.03211403e-01 6.04638696e-01 6.06065989e-01 6.07493281e-01 6.08920634e-01 6.10347927e-01 6.11775219e-01 6.13202512e-01 6.14629805e-01 6.16057098e-01 6.17484391e-01 6.18911684e-01 6.20338976e-01 6.21766269e-01 6.23193562e-01 6.24620855e-01 6.26048148e-01 6.27475441e-01 6.28902793e-01 6.30330086e-01 6.31757379e-01 6.33184671e-01 6.34611964e-01 6.36039257e-01 6.37466550e-01 6.38893843e-01 6.40321136e-01 6.41748428e-01 6.43175721e-01 6.44603014e-01 6.46030307e-01 6.47457600e-01 6.48884952e-01 6.50312245e-01 6.51739538e-01 6.53166831e-01 6.54594123e-01 6.56021416e-01 6.57448709e-01 6.58876002e-01 6.60303295e-01 6.61730587e-01 6.63157880e-01 6.64585173e-01 6.66012466e-01 6.67439759e-01 6.68867111e-01 6.70294404e-01 6.71721697e-01 6.73148990e-01 6.74576283e-01 6.76003575e-01 6.77430868e-01 6.78858161e-01 6.80285454e-01 6.81712747e-01 6.83140039e-01 6.84567332e-01 6.85994625e-01 6.87421918e-01 6.88849270e-01 6.90276563e-01 6.91703856e-01 6.93131149e-01 6.94558442e-01 6.95985734e-01 6.97413027e-01 6.98840320e-01 7.00267613e-01 7.01694906e-01 7.03122199e-01 7.04549491e-01 7.05976784e-01 7.07404077e-01 7.08831429e-01 7.10258722e-01 7.11686015e-01 7.13113308e-01 7.14540601e-01 7.15967894e-01 7.17395186e-01 7.18822479e-01 7.20249772e-01 7.21677065e-01 7.23104358e-01 7.24531651e-01 7.25958943e-01 7.27386236e-01 7.28813589e-01 7.30240881e-01 7.31668174e-01 7.33095467e-01 7.34522760e-01 7.35950053e-01 7.37377346e-01 7.38804638e-01 7.40231931e-01 7.41659224e-01 7.43086517e-01 7.44513810e-01 7.45941103e-01 7.47368395e-01 7.48795748e-01 7.50223041e-01 7.51650333e-01 7.53077626e-01 7.54504919e-01 7.55932212e-01 7.57359505e-01 7.58786798e-01 7.60214090e-01 7.61641383e-01 7.63068676e-01 7.64495969e-01 7.65923262e-01 7.67350554e-01 7.68777847e-01 7.70205200e-01 7.71632493e-01 7.73059785e-01 7.74487078e-01 7.75914371e-01 7.77341664e-01 7.78768957e-01 7.80196249e-01 7.81623542e-01 7.83050835e-01 7.84478128e-01 7.85905421e-01 7.87332714e-01 7.88760006e-01 7.90187359e-01 7.91614652e-01 7.93041945e-01 7.94469237e-01 7.95896530e-01 7.97323823e-01 7.98751116e-01 8.00178409e-01 8.01605701e-01 8.03032994e-01 8.04460287e-01 8.05887580e-01 8.07314873e-01 8.08742166e-01 8.10169518e-01 8.11596811e-01 8.13024104e-01 8.14451396e-01 8.15878689e-01 8.17305982e-01 8.18733275e-01 8.20160568e-01 8.21587861e-01 8.23015153e-01 8.24442446e-01 8.25869739e-01 8.27297032e-01 8.28724325e-01 8.30151677e-01 8.31578970e-01 8.33006263e-01 8.34433556e-01 8.35860848e-01 8.37288141e-01 8.38715434e-01 8.40142727e-01 8.41570020e-01 8.42997313e-01 8.44424605e-01 8.45851898e-01 8.47279191e-01 8.48706484e-01 8.50133836e-01 8.51561129e-01 8.52988422e-01 8.54415715e-01 8.55843008e-01 8.57270300e-01 8.58697593e-01 8.60124886e-01 8.61552179e-01 8.62979472e-01 8.64406765e-01 8.65834057e-01 8.67261350e-01 8.68688643e-01 8.70115995e-01 8.71543288e-01 8.72970581e-01 8.74397874e-01 8.75825167e-01 8.77252460e-01 8.78679752e-01 8.80107045e-01 8.81534338e-01 8.82961631e-01 8.84388924e-01 8.85816216e-01 8.87243509e-01 8.88670802e-01 8.90098155e-01 8.91525447e-01 8.92952740e-01 8.94380033e-01 8.95807326e-01 8.97234619e-01 8.98661911e-01 9.00089204e-01 9.01516497e-01 9.02943790e-01 9.04371083e-01 9.05798376e-01 9.07225668e-01 9.08652961e-01 9.10080314e-01 9.11507607e-01 9.12934899e-01 9.14362192e-01 9.15789485e-01 9.17216778e-01 9.18644071e-01 9.20071363e-01 9.21498656e-01 9.22925949e-01 9.24353242e-01 9.25780535e-01 9.27207828e-01 9.28635120e-01 9.30062473e-01 9.31489766e-01 9.32917058e-01 9.34344351e-01 9.35771644e-01 9.37198937e-01 9.38626230e-01 9.40053523e-01 9.41480815e-01 9.42908108e-01 9.44335401e-01 9.45762694e-01 9.47189987e-01 9.48617280e-01 9.50044632e-01 9.51471925e-01 9.52899218e-01 9.54326510e-01 9.55753803e-01 9.57181096e-01 9.58608389e-01 9.60035682e-01 9.61462975e-01 9.62890267e-01 9.64317560e-01 9.65744853e-01 9.67172146e-01 9.68599439e-01 9.70026791e-01 9.71454084e-01 9.72881377e-01 9.74308670e-01 9.75735962e-01 9.77163255e-01 9.78590548e-01 9.80017841e-01 9.81445134e-01 9.82872427e-01 9.84299719e-01 9.85727012e-01 9.87154305e-01 9.88581598e-01 9.90008950e-01 9.91436243e-01 9.92863536e-01 9.94290829e-01 9.95718122e-01 9.97145414e-01 9.98572707e-01 1.00000000e+00 
            </Histogram>
            <HistogramBinning NBins="701">
              1.46505728e-01 1.46605730e-01 2.25331306e-01 2.43772343e-01 2.69634485e-01 2.92584270e-01 3.07775438e-01 3.18577558e-01 3.32976192e-01 3.42690468e-01 3.52622539e-01 3.64926428e-01 3.79775494e-01 3.87897879e-01 3.97101313e-01 4.05109704e-01 4.13562775e-01 4.26516682e-01 4.33206797e-01 4.40956324e-01 4.45591688e-01 4.51495051e-01 4.63558346e-01 4.70015883e-01 4.76096004e-01 4.82073486e-01 4.89838988e-01 4.95581567e-01 4.99692380e-01 5.02911448e-01 5.07624328e-01 5.12388527e-01 5.15609920e-01 5.21874785e-01 5.24474680e-01 5.28818071e-01 5.32318771e-01 5.37345231e-01 5.42101502e-01 5.45358181e-01 5.48971832e-01 5.54656267e-01 5.58868527e-01 5.61736465e-01 5.65360308e-01 5.69714010e-01 5.75201154e-01 5.77993751e-01 5.82049847e-01 5.84223211e-01 5.87128758e-01 5.89830160e-01 5.91660321e-01 5.95019639e-01 5.97749591e-01 6.01259470e-01 6.05565250e-01 6.07516289e-01 6.10877931e-01 6.13968134e-01 6.18476927e-01 6.22661829e-01 6.24510288e-01 6.26311958e-01 6.29535615e-01 6.32694244e-01 6.35493696e-01 6.36841536e-01 6.39373064e-01 6.43271744e-01 6.46542132e-01 6.48323298e-01 6.49838746e-01 6.52201474e-01 6.54280245e-01 6.57668114e-01 6.59314692e-01 6.62712812e-01 6.64847434e-01 6.67800844e-01 6.69203401e-01 6.70716643e-01 6.71856880e-01 6.73625529e-01 6.75954044e-01 6.77697539e-01 6.79517508e-01 6.80997610e-01 6.82316959e-01 6.83279395e-01 6.84285104e-01 6.85809731e-01 6.87614799e-01 6.88604593e-01 6.90388083e-01 6.92048311e-01 6.93926394e-01 6.95346117e-01 6.97005272e-01 6.98454559e-01 7.00543582e-01 7.01556206e-01 7.03749001e-01 7.05328345e-01 7.06191540e-01 7.07616925e-01 7.08717346e-01 7.09449351e-01 7.11317241e-01 7.13238657e-01 7.13930786e-01 7.16512442e-01 7.17856884e-01 7.20001817e-01 7.21126139e-01 7.23202586e-01 7.24516213e-01 7.25140035e-01 7.25891471e-01 7.27169752e-01 7.28662431e-01 7.29469776e-01 7.30324984e-01 7.32331872e-01 7.33789206e-01 7.35141695e-01 7.36743748e-01 7.37861216e-01 7.39271820e-01 7.40611672e-01 7.41552413e-01 7.43055403e-01 7.44105577e-01 7.46163845e-01 7.46585727e-01 7.48147905e-01 7.48829842e-01 7.49410272e-01 7.50169694e-01 7.50811756e-01 7.52188027e-01 7.52842605e-01 7.54590690e-01 7.55223513e-01 7.56497264e-01 7.57734537e-01 7.58544147e-01 7.59134769e-01 7.60377765e-01 7.61539698e-01 7.62575150e-01 7.63986766e-01 7.64978886e-01 7.65816987e-01 7.67058790e-01 7.67475009e-01 7.68664360e-01 7.69393027e-01 7.70603955e-01 7.71715820e-01 7.72569895e-01 7.73193657e-01 7.73896098e-01 7.74632692e-01 7.75288403e-01 7.76993155e-01 7.77753770e-01 7.78331876e-01 7.79241800e-01 7.80337632e-01 7.81248748e-01 7.82460928e-01 7.83206642e-01 7.84177065e-01 7.85066485e-01 7.85676539e-01 7.86608219e-01 7.87487388e-01 7.88185239e-01 7.88511395e-01 7.89340377e-01 7.90114701e-01 7.91056514e-01 7.91649520e-01 7.92111278e-01 7.92817175e-01 7.93528736e-01 7.94383943e-01 7.94900477e-01 7.95584679e-01 7.96539187e-01 7.97441065e-01 7.98159540e-01 7.98736513e-01 7.99632728e-01 8.00664723e-01 8.01644266e-01 8.02054763e-01 8.02717268e-01 8.03224742e-01 8.04078817e-01 8.04468811e-01 8.04864466e-01 8.05569172e-01 8.06505382e-01 8.07138264e-01 8.08048189e-01 8.08760881e-01 8.09337914e-01 8.10033500e-01 8.10537577e-01 8.11535239e-01 8.12374532e-01 8.13035905e-01 8.13237727e-01 8.13944757e-01 8.14712167e-01 8.15477312e-01 8.16324592e-01 8.17078292e-01 8.17505956e-01 8.18192363e-01 8.18771720e-01 8.19100022e-01 8.19666862e-01 8.20140004e-01 8.20649743e-01 8.21621239e-01 8.22296381e-01 8.23315799e-01 8.23760569e-01 8.24209809e-01 8.24964702e-01 8.25722992e-01 8.26430023e-01 8.27160895e-01 8.27804089e-01 8.28467667e-01 8.29179227e-01 8.29744816e-01 8.30385625e-01 8.30910265e-01 8.31666291e-01 8.32859039e-01 8.33804369e-01 8.34496498e-01 8.34964037e-01 8.35754216e-01 8.36647093e-01 8.37358654e-01 8.37986946e-01 8.38552535e-01 8.39056611e-01 8.39682579e-01 8.40285838e-01 8.40619981e-01 8.41342926e-01 8.41829777e-01 8.42201531e-01 8.43032777e-01 8.43601823e-01 8.44217598e-01 8.44815135e-01 8.45281541e-01 8.45906436e-01 8.46255302e-01 8.47080886e-01 8.47514272e-01 8.48122001e-01 8.48376334e-01 8.49049091e-01 8.49353552e-01 8.49745750e-01 8.50099325e-01 8.50488126e-01 8.51144969e-01 8.51823449e-01 8.52147281e-01 8.53230596e-01 8.54391396e-01 8.54854405e-01 8.55425656e-01 8.55787098e-01 8.56150925e-01 8.56601357e-01 8.57128084e-01 8.57766747e-01 8.58140767e-01 8.59089494e-01 8.59562695e-01 8.59943569e-01 8.60314190e-01 8.60773683e-01 8.60994935e-01 8.61756682e-01 8.62343907e-01 8.63026977e-01 8.63378167e-01 8.63933444e-01 8.64605129e-01 8.65350962e-01 8.65858316e-01 8.66441011e-01 8.67103517e-01 8.67577910e-01 8.68064880e-01 8.68461668e-01 8.68889272e-01 8.69406998e-01 8.69665802e-01 8.70185792e-01 8.70662451e-01 8.71583760e-01 8.72370601e-01 8.72847259e-01 8.73152852e-01 8.73500705e-01 8.73777807e-01 8.74499619e-01 8.74768674e-01 8.74997854e-01 8.75596583e-01 8.76093686e-01 8.76509964e-01 8.77124548e-01 8.77699256e-01 8.78504336e-01 8.79433632e-01 8.79951358e-01 8.80376697e-01 8.80719900e-01 8.81625295e-01 8.82431507e-01 8.83014202e-01 8.83687019e-01 8.84279966e-01 8.84811342e-01 8.85398626e-01 8.85825038e-01 8.86330247e-01 8.86834264e-01 8.87493372e-01 8.88031602e-01 8.88499141e-01 8.88869762e-01 8.89200449e-01 8.89669120e-01 8.89915407e-01 8.90328169e-01 8.90719235e-01 8.91251743e-01 8.91720533e-01 8.92103672e-01 8.92533541e-01 8.92941713e-01 8.93294036e-01 8.93747926e-01 8.94444704e-01 8.94847155e-01 8.95255446e-01 8.95737767e-01 8.96460712e-01 8.96908820e-01 8.97572577e-01 8.97922635e-01 8.98402691e-01 8.99024129e-01 8.99491668e-01 9.00080025e-01 9.00636554e-01 9.00945544e-01 9.01433647e-01 9.02113259e-01 9.02538598e-01 9.02971864e-01 9.03497577e-01 9.04223919e-01 9.04583156e-01 9.05336916e-01 9.05803204e-01 9.06455517e-01 9.06828403e-01 9.07578707e-01 9.08233225e-01 9.08607244e-01 9.09119248e-01 9.09500122e-01 9.09845591e-01 9.10195708e-01 9.10944939e-01 9.11613166e-01 9.12324727e-01 9.12744284e-01 9.13533390e-01 9.13937032e-01 9.14266586e-01 9.14797962e-01 9.14974749e-01 9.15170848e-01 9.15910959e-01 9.16639566e-01 9.17068303e-01 9.17645335e-01 9.18001115e-01 9.18637395e-01 9.19004560e-01 9.19303358e-01 9.19610023e-01 9.20328498e-01 9.20647740e-01 9.21022892e-01 9.21748102e-01 9.22635317e-01 9.22997952e-01 9.23528194e-01 9.24101770e-01 9.24809873e-01 9.25342381e-01 9.26049411e-01 9.26705003e-01 9.27284360e-01 9.27845418e-01 9.28479373e-01 9.29444075e-01 9.30004001e-01 9.30550158e-01 9.31005180e-01 9.31487501e-01 9.32037175e-01 9.32500064e-01 9.33105588e-01 9.33992803e-01 9.34929013e-01 9.35434103e-01 9.36308682e-01 9.36726034e-01 9.37090993e-01 9.37607527e-01 9.38316822e-01 9.38674867e-01 9.39331651e-01 9.39998746e-01 9.40562069e-01 9.41437781e-01 9.42417383e-01 9.43037689e-01 9.43611264e-01 9.44565654e-01 9.44912314e-01 9.45506454e-01 9.46155250e-01 9.46951210e-01 9.47607994e-01 9.48275089e-01 9.49128032e-01 9.49506640e-01 9.50097322e-01 9.50994730e-01 9.51982260e-01 9.52393830e-01 9.52905893e-01 9.53677833e-01 9.54455554e-01 9.55005169e-01 9.55648303e-01 9.56191063e-01 9.56865013e-01 9.57135260e-01 9.57911789e-01 9.58427250e-01 9.59174156e-01 9.60062385e-01 9.61549401e-01 9.62516367e-01 9.63316858e-01 9.63955402e-01 9.64777648e-01 9.65368271e-01 9.66289639e-01 9.66992080e-01 9.67325032e-01 9.68458533e-01 9.69426632e-01 9.70012784e-01 9.70771074e-01 9.71475720e-01 9.72108662e-01 9.73053992e-01 9.73839641e-01 9.75120187e-01 9.75448608e-01 9.76278722e-01 9.77497697e-01 9.78964150e-01 9.80142057e-01 9.81550336e-01 9.82844591e-01 9.83848035e-01 9.84829903e-01 9.85462725e-01 9.86598492e-01 9.87625957e-01 9.88784432e-01 9.90212142e-01 9.91518974e-01 9.93292093e-01 9.94524777e-01 9.95808780e-01 9.98212516e-01 9.99131560e-01 1.00055814e+00 1.00134492e+00 1.00317168e+00 1.00491297e+00 1.00747287e+00 1.00863612e+00 1.01043212e+00 1.01186311e+00 1.01312196e+00 1.01438320e+00 1.01578355e+00 1.01830590e+00 1.02127743e+00 1.02283168e+00 1.02472925e+00 1.02618766e+00 1.02829611e+00 1.02971804e+00 1.03100431e+00 1.03245592e+00 1.03321874e+00 1.03478444e+00 1.03627586e+00 1.03776288e+00 1.03934336e+00 1.04121912e+00 1.04337776e+00 1.04653525e+00 1.04826391e+00 1.05033016e+00 1.05302596e+00 1.05444217e+00 1.05605912e+00 1.05884147e+00 1.06064534e+00 1.06232619e+00 1.06360340e+00 1.06559312e+00 1.06694329e+00 1.06845880e+00 1.07066870e+00 1.07391858e+00 1.07639873e+00 1.07828820e+00 1.07969427e+00 1.08223367e+00 1.08421779e+00 1.08626699e+00 1.09110641e+00 1.09345663e+00 1.09568024e+00 1.09898472e+00 1.10112405e+00 1.10410929e+00 1.10707521e+00 1.11016548e+00 1.11426151e+00 1.11812592e+00 1.12248540e+00 1.12642622e+00 1.12988245e+00 1.13241625e+00 1.13671410e+00 1.13918173e+00 1.14129806e+00 1.14512956e+00 1.14754701e+00 1.15240467e+00 1.15665805e+00 1.16028416e+00 1.16337442e+00 1.16719449e+00 1.17055833e+00 1.17361438e+00 1.17662477e+00 1.18066144e+00 1.18493760e+00 1.18965852e+00 1.19302237e+00 1.19756091e+00 1.20455098e+00 1.21092522e+00 1.21903276e+00 1.22240806e+00 1.22636497e+00 1.22961485e+00 1.23379970e+00 1.23959255e+00 1.24338973e+00 1.24831581e+00 1.25405157e+00 1.25906897e+00 1.26503277e+00 1.26829398e+00 1.27409816e+00 1.28021014e+00 1.28716600e+00 1.29371142e+00 1.30104363e+00 1.30279970e+00 1.30652845e+00 1.31224144e+00 1.31996119e+00 1.32613027e+00 1.33322299e+00 1.33754480e+00 1.34365678e+00 1.34947240e+00 1.35654223e+00 1.36147988e+00 1.36825323e+00 1.37593889e+00 1.38390958e+00 1.38819718e+00 1.39419520e+00 1.40579212e+00 1.41308999e+00 1.42076433e+00 1.42673957e+00 1.43774343e+00 1.44415200e+00 1.45093679e+00 1.45922685e+00 1.46586347e+00 1.47483766e+00 1.48746085e+00 1.49724472e+00 1.50871611e+00 1.51958323e+00 1.52835214e+00 1.53785098e+00 1.55793166e+00 1.57196891e+00 1.58391929e+00 1.59573281e+00 1.60650885e+00 1.62713683e+00 1.63695490e+00 1.64930439e+00 1.67627263e+00 1.69073188e+00 1.71410811e+00 1.72893202e+00 1.74791813e+00 1.76091766e+00 1.78569651e+00 1.80887890e+00 1.81956351e+00 1.83634877e+00 1.85912085e+00 1.87916732e+00 1.91162050e+00 1.93423271e+00 1.95221543e+00 1.97108746e+00 2.00675607e+00 2.03371310e+00 2.06702137e+00 2.09207392e+00 2.12120867e+00 2.15568018e+00 2.20499849e+00 2.24135137e+00 2.28537846e+00 2.32301998e+00 2.35537052e+00 2.43076754e+00 2.46361971e+00 2.50155783e+00 2.54199290e+00 2.58581495e+00 2.66661716e+00 2.74194574e+00 2.79799175e+00 2.83891726e+00 2.91069961e+00 2.98393011e+00 3.06522250e+00 3.18823862e+00 3.33198547e+00 3.44120407e+00 3.59837270e+00 3.72660017e+00 3.85171437e+00 4.00240564e+00 4.21243858e+00 4.46482277e+00 4.66849279e+00 4.96293116e+00 5.44882679e+00 6.89167881e+00 1.01800709e+01 
            </HistogramBinning>
          </PDF>
        </CumulativePDF_cls1>
        <CumulativePDF_cls2>
          <PDF Name="GaussTransform var0 cls2" MinNSmooth="0" MaxNSmooth="0" InterpolMethod="1" KDE_type="0" KDE_iter="1" KDE_border="1" KDE_finefactor="0.0000000000000000e+00">
            <Histogram Name="Cumulative_Var0_cls2_original" NBins="1401" XMin="1.4650572836399078e-01" XMax="1.3098125457763672e+01" HasEquidistantBins="0">
              5.17626060e-04 1.16019638e-03 1.86970108e-03 2.58813030e-03 3.30209732e-03 4.01606411e-03 4.73003136e-03 5.44399815e-03 6.15796540e-03 6.87193219e-03 7.58589897e-03 8.29986576e-03 9.01383348e-03 9.72780026e-03 1.04417671e-02 1.11557338e-02 1.18697006e-02 1.25836683e-02 1.32976351e-02 1.40116019e-02 1.47255687e-02 1.54395355e-02 1.61535032e-02 1.68674700e-02 1.75814368e-02 1.82954036e-02 1.90093704e-02 1.97233371e-02 2.04373039e-02 2.11512726e-02 2.18652394e-02 2.25792062e-02 2.32931729e-02 2.40071397e-02 2.47211065e-02 2.54350733e-02 2.61490401e-02 2.68630069e-02 2.75769737e-02 2.82909423e-02 2.90049091e-02 2.97188759e-02 3.04328427e-02 3.11468095e-02 3.18607762e-02 3.25747430e-02 3.32887098e-02 3.40026766e-02 3.47166434e-02 3.54306102e-02 3.61445770e-02 3.68585438e-02 3.75725105e-02 3.82864811e-02 3.90004478e-02 3.97144146e-02 4.04283814e-02 4.11423482e-02 4.18563150e-02 4.25702818e-02 4.32842486e-02 4.39982153e-02 4.47121821e-02 4.54261489e-02 4.61401157e-02 4.68540825e-02 4.75680493e-02 4.82820161e-02 4.89959829e-02 4.97099496e-02 5.04239164e-02 5.11378832e-02 5.18518500e-02 5.25658205e-02 5.32797873e-02 5.39937541e-02 5.47077209e-02 5.54216877e-02 5.61356544e-02 5.68496212e-02 5.75635880e-02 5.82775548e-02 5.89915216e-02 5.97054884e-02 6.04194552e-02 6.11334220e-02 6.18473887e-02 6.25613555e-02 6.32753223e-02 6.39892891e-02 6.47032559e-02 6.54172227e-02 6.61311895e-02 6.68451563e-02 6.75591230e-02 6.82730898e-02 6.89870566e-02 6.97010234e-02 7.04149902e-02 7.11289570e-02 7.18429238e-02 7.25568905e-02 7.32708648e-02 7.39848316e-02 7.46987984e-02 7.54127651e-02 7.61267319e-02 7.68406987e-02 7.75546655e-02 7.82686323e-02 7.89825991e-02 7.96965659e-02 8.04105327e-02 8.11244994e-02 8.18384662e-02 8.25524330e-02 8.32663998e-02 8.39803666e-02 8.46943334e-02 8.54083002e-02 8.61222669e-02 8.68362337e-02 8.75502005e-02 8.82641673e-02 8.89781341e-02 8.96921009e-02 9.04060677e-02 9.11200345e-02 9.18340012e-02 9.25479680e-02 9.32619348e-02 9.39759016e-02 9.46898684e-02 9.54038352e-02 9.61178020e-02 9.68317688e-02 9.75457355e-02 9.82597023e-02 9.89736691e-02 9.96876359e-02 1.00401610e-01 1.01115577e-01 1.01829544e-01 1.02543510e-01 1.03257477e-01 1.03971444e-01 1.04685411e-01 1.05399378e-01 1.06113344e-01 1.06827311e-01 1.07541278e-01 1.08255245e-01 1.08969212e-01 1.09683178e-01 1.10397145e-01 1.11111112e-01 1.11825079e-01 1.12539046e-01 1.13253012e-01 1.13966979e-01 1.14680946e-01 1.15394913e-01 1.16108879e-01 1.16822846e-01 1.17536813e-01 1.18250780e-01 1.18964747e-01 1.19678713e-01 1.20392680e-01 1.21106647e-01 1.21820614e-01 1.22534581e-01 1.23248547e-01 1.23962514e-01 1.24676481e-01 1.25390455e-01 1.26104414e-01 1.26818389e-01 1.27532348e-01 1.28246322e-01 1.28960282e-01 1.29674256e-01 1.30388215e-01 1.31102189e-01 1.31816149e-01 1.32530123e-01 1.33244082e-01 1.33958057e-01 1.34672016e-01 1.35385990e-01 1.36099949e-01 1.36813924e-01 1.37527883e-01 1.38241857e-01 1.38955817e-01 1.39669791e-01 1.40383750e-01 1.41097724e-01 1.41811684e-01 1.42525658e-01 1.43239632e-01 1.43953592e-01 1.44667566e-01 1.45381525e-01 1.46095499e-01 1.46809459e-01 1.47523433e-01 1.48237392e-01 1.48951367e-01 1.49665326e-01 1.50379300e-01 1.51093259e-01 1.51807234e-01 1.52521193e-01 1.53235167e-01 1.53949127e-01 1.54663101e-01 1.55377060e-01 1.56091034e-01 1.56804994e-01 1.57518968e-01 1.58232927e-01 1.58946902e-01 1.59660861e-01 1.60374835e-01 1.61088794e-01 1.61802769e-01 1.62516728e-01 1.63230702e-01 1.63944662e-01 1.64658636e-01 1.65372595e-01 1.66086569e-01 1.66800529e-01 1.67514503e-01 1.68228462e-01 1.68942437e-01 1.69656411e-01 1.70370370e-01 1.71084344e-01 1.71798304e-01 1.72512278e-01 1.73226237e-01 1.73940212e-01 1.74654171e-01 1.75368145e-01 1.76082104e-01 1.76796079e-01 1.77510038e-01 1.78224012e-01 1.78937972e-01 1.79651946e-01 1.80365905e-01 1.81079879e-01 1.81793839e-01 1.82507813e-01 1.83221772e-01 1.83935747e-01 1.84649706e-01 1.85363680e-01 1.86077639e-01 1.86791614e-01 1.87505573e-01 1.88219547e-01 1.88933507e-01 1.89647481e-01 1.90361440e-01 1.91075414e-01 1.91789374e-01 1.92503348e-01 1.93217307e-01 1.93931282e-01 1.94645241e-01 1.95359215e-01 1.96073174e-01 1.96787149e-01 1.97501123e-01 1.98215082e-01 1.98929057e-01 1.99643016e-01 2.00356990e-01 2.01070949e-01 2.01784924e-01 2.02498883e-01 2.03212857e-01 2.03926817e-01 2.04640791e-01 2.05354750e-01 2.06068724e-01 2.06782684e-01 2.07496658e-01 2.08210617e-01 2.08924592e-01 2.09638551e-01 2.10352525e-01 2.11066484e-01 2.11780459e-01 2.12494418e-01 2.13208392e-01 2.13922352e-01 2.14636326e-01 2.15350285e-01 2.16064259e-01 2.16778219e-01 2.17492193e-01 2.18206152e-01 2.18920127e-01 2.19634086e-01 2.20348060e-01 2.21062019e-01 2.21775994e-01 2.22489953e-01 2.23203927e-01 2.23917887e-01 2.24631861e-01 2.25345835e-01 2.26059794e-01 2.26773769e-01 2.27487728e-01 2.28201702e-01 2.28915662e-01 2.29629636e-01 2.30343595e-01 2.31057569e-01 2.31771529e-01 2.32485503e-01 2.33199462e-01 2.33913437e-01 2.34627396e-01 2.35341370e-01 2.36055329e-01 2.36769304e-01 2.37483263e-01 2.38197237e-01 2.38911197e-01 2.39625171e-01 2.40339130e-01 2.41053104e-01 2.41767064e-01 2.42481038e-01 2.43194997e-01 2.43908972e-01 2.44622931e-01 2.45336905e-01 2.46050864e-01 2.46764839e-01 2.47478798e-01 2.48192772e-01 2.48906732e-01 2.49620706e-01 2.50334680e-01 2.51048625e-01 2.51762599e-01 2.52476573e-01 2.53190547e-01 2.53904521e-01 2.54618466e-01 2.55332440e-01 2.56046414e-01 2.56760389e-01 2.57474333e-01 2.58188307e-01 2.58902282e-01 2.59616256e-01 2.60330200e-01 2.61044174e-01 2.61758149e-01 2.62472123e-01 2.63186067e-01 2.63900042e-01 2.64614016e-01 2.65327990e-01 2.66041934e-01 2.66755909e-01 2.67469883e-01 2.68183857e-01 2.68897802e-01 2.69611776e-01 2.70325750e-01 2.71039724e-01 2.71753669e-01 2.72467643e-01 2.73181617e-01 2.73895591e-01 2.74609536e-01 2.75323510e-01 2.76037484e-01 2.76751459e-01 2.77465403e-01 2.78179377e-01 2.78893352e-01 2.79607326e-01 2.80321300e-01 2.81035244e-01 2.81749219e-01 2.82463193e-01 2.83177167e-01 2.83891112e-01 2.84605086e-01 2.85319060e-01 2.86033034e-01 2.86746979e-01 2.87460953e-01 2.88174927e-01 2.88888901e-01 2.89602846e-01 2.90316820e-01 2.91030794e-01 2.91744769e-01 2.92458713e-01 2.93172687e-01 2.93886662e-01 2.94600636e-01 2.95314580e-01 2.96028554e-01 2.96742529e-01 2.97456503e-01 2.98170447e-01 2.98884422e-01 2.99598396e-01 3.00312370e-01 3.01026314e-01 3.01740289e-01 3.02454263e-01 3.03168237e-01 3.03882182e-01 3.04596156e-01 3.05310130e-01 3.06024104e-01 3.06738049e-01 3.07452023e-01 3.08165997e-01 3.08879972e-01 3.09593946e-01 3.10307890e-01 3.11021864e-01 3.11735839e-01 3.12449813e-01 3.13163757e-01 3.13877732e-01 3.14591706e-01 3.15305680e-01 3.16019624e-01 3.16733599e-01 3.17447573e-01 3.18161547e-01 3.18875492e-01 3.19589466e-01 3.20303440e-01 3.21017414e-01 3.21731359e-01 3.22445333e-01 3.23159307e-01 3.23873281e-01 3.24587226e-01 3.25301200e-01 3.26015174e-01 3.26729149e-01 3.27443093e-01 3.28157067e-01 3.28871042e-01 3.29585016e-01 3.30298960e-01 3.31012934e-01 3.31726909e-01 3.32440883e-01 3.33154827e-01 3.33868802e-01 3.34582776e-01 3.35296750e-01 3.36010724e-01 3.36724669e-01 3.37438643e-01 3.38152617e-01 3.38866591e-01 3.39580536e-01 3.40294510e-01 3.41008484e-01 3.41722459e-01 3.42436403e-01 3.43150377e-01 3.43864352e-01 3.44578326e-01 3.45292270e-01 3.46006244e-01 3.46720219e-01 3.47434193e-01 3.48148137e-01 3.48862112e-01 3.49576086e-01 3.50290060e-01 3.51004004e-01 3.51717979e-01 3.52431953e-01 3.53145927e-01 3.53859872e-01 3.54573846e-01 3.55287820e-01 3.56001794e-01 3.56715739e-01 3.57429713e-01 3.58143687e-01 3.58857661e-01 3.59571606e-01 3.60285580e-01 3.60999554e-01 3.61713529e-01 3.62427473e-01 3.63141447e-01 3.63855422e-01 3.64569396e-01 3.65283370e-01 3.65997314e-01 3.66711289e-01 3.67425263e-01 3.68139237e-01 3.68853182e-01 3.69567156e-01 3.70281130e-01 3.70995104e-01 3.71709049e-01 3.72423023e-01 3.73136997e-01 3.73850971e-01 3.74564916e-01 3.75278890e-01 3.75992864e-01 3.76706839e-01 3.77420783e-01 3.78134757e-01 3.78848732e-01 3.79562706e-01 3.80276650e-01 3.80990624e-01 3.81704599e-01 3.82418573e-01 3.83132517e-01 3.83846492e-01 3.84560466e-01 3.85274440e-01 3.85988384e-01 3.86702359e-01 3.87416333e-01 3.88130307e-01 3.88844252e-01 3.89558226e-01 3.90272200e-01 3.90986174e-01 3.91700149e-01 3.92414093e-01 3.93128067e-01 3.93842041e-01 3.94556016e-01 3.95269960e-01 3.95983934e-01 3.96697909e-01 3.97411883e-01 3.98125827e-01 3.98839802e-01 3.99553776e-01 4.00267750e-01 4.00981694e-01 4.01695669e-01 4.02409643e-01 4.03123617e-01 4.03837562e-01 4.04551536e-01 4.05265510e-01 4.05979484e-01 4.06693429e-01 4.07407403e-01 4.08121377e-01 4.08835351e-01 4.09549296e-01 4.10263270e-01 4.10977244e-01 4.11691219e-01 4.12405163e-01 4.13119137e-01 4.13833112e-01 4.14547086e-01 4.15261030e-01 4.15975004e-01 4.16688979e-01 4.17402953e-01 4.18116897e-01 4.18830872e-01 4.19544846e-01 4.20258820e-01 4.20972794e-01 4.21686739e-01 4.22400713e-01 4.23114687e-01 4.23828661e-01 4.24542606e-01 4.25256580e-01 4.25970554e-01 4.26684529e-01 4.27398473e-01 4.28112447e-01 4.28826421e-01 4.29540396e-01 4.30254340e-01 4.30968314e-01 4.31682289e-01 4.32396263e-01 4.33110207e-01 4.33824182e-01 4.34538156e-01 4.35252130e-01 4.35966074e-01 4.36680049e-01 4.37394023e-01 4.38107997e-01 4.38821942e-01 4.39535916e-01 4.40249890e-01 4.40963864e-01 4.41677809e-01 4.42391783e-01 4.43105757e-01 4.43819731e-01 4.44533676e-01 4.45247650e-01 4.45961624e-01 4.46675599e-01 4.47389573e-01 4.48103517e-01 4.48817492e-01 4.49531466e-01 4.50245440e-01 4.50959384e-01 4.51673359e-01 4.52387333e-01 4.53101307e-01 4.53815252e-01 4.54529226e-01 4.55243200e-01 4.55957174e-01 4.56671119e-01 4.57385093e-01 4.58099067e-01 4.58813041e-01 4.59526986e-01 4.60240960e-01 4.60954934e-01 4.61668909e-01 4.62382853e-01 4.63096827e-01 4.63810802e-01 4.64524776e-01 4.65238720e-01 4.65952694e-01 4.66666669e-01 4.67380643e-01 4.68094587e-01 4.68808562e-01 4.69522536e-01 4.70236510e-01 4.70950454e-01 4.71664429e-01 4.72378403e-01 4.73092377e-01 4.73806322e-01 4.74520296e-01 4.75234270e-01 4.75948244e-01 4.76662219e-01 4.77376163e-01 4.78090137e-01 4.78804111e-01 4.79518086e-01 4.80232030e-01 4.80946004e-01 4.81659979e-01 4.82373953e-01 4.83087897e-01 4.83801872e-01 4.84515846e-01 4.85229820e-01 4.85943764e-01 4.86657739e-01 4.87371713e-01 4.88085687e-01 4.88799632e-01 4.89513606e-01 4.90227580e-01 4.90941554e-01 4.91655499e-01 4.92369473e-01 4.93083447e-01 4.93797421e-01 4.94511366e-01 4.95225340e-01 4.95939314e-01 4.96653289e-01 4.97367233e-01 4.98081207e-01 4.98795182e-01 4.99509156e-01 5.00223100e-01 5.00937104e-01 5.01651049e-01 5.02364993e-01 5.03078997e-01 5.03792942e-01 5.04506946e-01 5.05220890e-01 5.05934834e-01 5.06648839e-01 5.07362783e-01 5.08076727e-01 5.08790731e-01 5.09504676e-01 5.10218680e-01 5.10932624e-01 5.11646569e-01 5.12360573e-01 5.13074517e-01 5.13788462e-01 5.14502466e-01 5.15216410e-01 5.15930414e-01 5.16644359e-01 5.17358303e-01 5.18072307e-01 5.18786252e-01 5.19500196e-01 5.20214200e-01 5.20928144e-01 5.21642148e-01 5.22356093e-01 5.23070037e-01 5.23784041e-01 5.24497986e-01 5.25211930e-01 5.25925934e-01 5.26639879e-01 5.27353883e-01 5.28067827e-01 5.28781772e-01 5.29495776e-01 5.30209720e-01 5.30923724e-01 5.31637669e-01 5.32351613e-01 5.33065617e-01 5.33779562e-01 5.34493506e-01 5.35207510e-01 5.35921454e-01 5.36635458e-01 5.37349403e-01 5.38063347e-01 5.38777351e-01 5.39491296e-01 5.40205240e-01 5.40919244e-01 5.41633189e-01 5.42347193e-01 5.43061137e-01 5.43775082e-01 5.44489086e-01 5.45203030e-01 5.45916975e-01 5.46630979e-01 5.47344923e-01 5.48058927e-01 5.48772871e-01 5.49486816e-01 5.50200820e-01 5.50914764e-01 5.51628709e-01 5.52342713e-01 5.53056657e-01 5.53770661e-01 5.54484606e-01 5.55198550e-01 5.55912554e-01 5.56626499e-01 5.57340503e-01 5.58054447e-01 5.58768392e-01 5.59482396e-01 5.60196340e-01 5.60910285e-01 5.61624289e-01 5.62338233e-01 5.63052237e-01 5.63766181e-01 5.64480126e-01 5.65194130e-01 5.65908074e-01 5.66622019e-01 5.67336023e-01 5.68049967e-01 5.68763971e-01 5.69477916e-01 5.70191860e-01 5.70905864e-01 5.71619809e-01 5.72333753e-01 5.73047757e-01 5.73761702e-01 5.74475706e-01 5.75189650e-01 5.75903594e-01 5.76617599e-01 5.77331543e-01 5.78045487e-01 5.78759491e-01 5.79473436e-01 5.80187440e-01 5.80901384e-01 5.81615329e-01 5.82329333e-01 5.83043277e-01 5.83757222e-01 5.84471226e-01 5.85185170e-01 5.85899174e-01 5.86613119e-01 5.87327063e-01 5.88041067e-01 5.88755012e-01 5.89469016e-01 5.90182960e-01 5.90896904e-01 5.91610909e-01 5.92324853e-01 5.93038797e-01 5.93752801e-01 5.94466746e-01 5.95180750e-01 5.95894694e-01 5.96608639e-01 5.97322643e-01 5.98036587e-01 5.98750532e-01 5.99464536e-01 6.00178480e-01 6.00892484e-01 6.01606429e-01 6.02320373e-01 6.03034377e-01 6.03748322e-01 6.04462266e-01 6.05176270e-01 6.05890214e-01 6.06604218e-01 6.07318163e-01 6.08032107e-01 6.08746111e-01 6.09460056e-01 6.10174000e-01 6.10888004e-01 6.11601949e-01 6.12315953e-01 6.13029897e-01 6.13743842e-01 6.14457846e-01 6.15171790e-01 6.15885794e-01 6.16599739e-01 6.17313683e-01 6.18027687e-01 6.18741632e-01 6.19455576e-01 6.20169580e-01 6.20883524e-01 6.21597528e-01 6.22311473e-01 6.23025417e-01 6.23739421e-01 6.24453366e-01 6.25167310e-01 6.25881314e-01 6.26595259e-01 6.27309263e-01 6.28023207e-01 6.28737152e-01 6.29451156e-01 6.30165100e-01 6.30879045e-01 6.31593049e-01 6.32306993e-01 6.33020997e-01 6.33734941e-01 6.34448886e-01 6.35162890e-01 6.35876834e-01 6.36590779e-01 6.37304783e-01 6.38018727e-01 6.38732731e-01 6.39446676e-01 6.40160620e-01 6.40874624e-01 6.41588569e-01 6.42302573e-01 6.43016517e-01 6.43730462e-01 6.44444466e-01 6.45158410e-01 6.45872355e-01 6.46586359e-01 6.47300303e-01 6.48014307e-01 6.48728251e-01 6.49442196e-01 6.50156200e-01 6.50870144e-01 6.51584089e-01 6.52298093e-01 6.53012037e-01 6.53726041e-01 6.54439986e-01 6.55153930e-01 6.55867934e-01 6.56581879e-01 6.57295823e-01 6.58009827e-01 6.58723772e-01 6.59437776e-01 6.60151720e-01 6.60865664e-01 6.61579669e-01 6.62293613e-01 6.63007557e-01 6.63721561e-01 6.64435506e-01 6.65149510e-01 6.65863454e-01 6.66577399e-01 6.67291403e-01 6.68005347e-01 6.68719351e-01 6.69433296e-01 6.70147240e-01 6.70861244e-01 6.71575189e-01 6.72289133e-01 6.73003137e-01 6.73717082e-01 6.74431086e-01 6.75145030e-01 6.75858974e-01 6.76572978e-01 6.77286923e-01 6.78000867e-01 6.78714871e-01 6.79428816e-01 6.80142820e-01 6.80856764e-01 6.81570709e-01 6.82284713e-01 6.82998657e-01 6.83712602e-01 6.84426606e-01 6.85140550e-01 6.85854554e-01 6.86568499e-01 6.87282443e-01 6.87996447e-01 6.88710392e-01 6.89424336e-01 6.90138340e-01 6.90852284e-01 6.91566288e-01 6.92280233e-01 6.92994177e-01 6.93708181e-01 6.94422126e-01 6.95136070e-01 6.95850074e-01 6.96564019e-01 6.97278023e-01 6.97991967e-01 6.98705912e-01 6.99419916e-01 7.00133860e-01 7.00847864e-01 7.01561809e-01 7.02275753e-01 7.02989757e-01 7.03703701e-01 7.04417646e-01 7.05131650e-01 7.05845594e-01 7.06559598e-01 7.07273543e-01 7.07987487e-01 7.08701491e-01 7.09415436e-01 7.10129380e-01 7.10843384e-01 7.11557329e-01 7.12271333e-01 7.12985277e-01 7.13699222e-01 7.14413226e-01 7.15127170e-01 7.15841115e-01 7.16555119e-01 7.17269063e-01 7.17983067e-01 7.18697011e-01 7.19410956e-01 7.20124960e-01 7.20838904e-01 7.21552849e-01 7.22266853e-01 7.22980797e-01 7.23694801e-01 7.24408746e-01 7.25122690e-01 7.25836694e-01 7.26550639e-01 7.27264643e-01 7.27978587e-01 7.28692532e-01 7.29406536e-01 7.30120480e-01 7.30834424e-01 7.31548429e-01 7.32262373e-01 7.32976377e-01 7.33690321e-01 7.34404266e-01 7.35118270e-01 7.35832214e-01 7.36546159e-01 7.37260163e-01 7.37974107e-01 7.38688111e-01 7.39402056e-01 7.40116000e-01 7.40830004e-01 7.41543949e-01 7.42257893e-01 7.42971897e-01 7.43685842e-01 7.44399846e-01 7.45113790e-01 7.45827734e-01 7.46541739e-01 7.47255683e-01 7.47969627e-01 7.48683631e-01 7.49397576e-01 7.50111580e-01 7.50825524e-01 7.51539469e-01 7.52253473e-01 7.52967417e-01 7.53681421e-01 7.54395366e-01 7.55109310e-01 7.55823314e-01 7.56537259e-01 7.57251203e-01 7.57965207e-01 7.58679152e-01 7.59393156e-01 7.60107100e-01 7.60821044e-01 7.61535048e-01 7.62248993e-01 7.62962937e-01 7.63676941e-01 7.64390886e-01 7.65104890e-01 7.65818834e-01 7.66532779e-01 7.67246783e-01 7.67960727e-01 7.68674672e-01 7.69388676e-01 7.70102620e-01 7.70816624e-01 7.71530569e-01 7.72244513e-01 7.72958517e-01 7.73672462e-01 7.74386406e-01 7.75100410e-01 7.75814354e-01 7.76528358e-01 7.77242303e-01 7.77956247e-01 7.78670251e-01 7.79384196e-01 7.80098200e-01 7.80812144e-01 7.81526089e-01 7.82240093e-01 7.82954037e-01 7.83667982e-01 7.84381986e-01 7.85095930e-01 7.85809934e-01 7.86523879e-01 7.87237823e-01 7.87951827e-01 7.88665771e-01 7.89379716e-01 7.90093720e-01 7.90807664e-01 7.91521668e-01 7.92235613e-01 7.92949557e-01 7.93663561e-01 7.94377506e-01 7.95091450e-01 7.95805454e-01 7.96519399e-01 7.97233403e-01 7.97947347e-01 7.98661292e-01 7.99375296e-01 8.00089240e-01 8.00803185e-01 8.01517189e-01 8.02231133e-01 8.02945137e-01 8.03659081e-01 8.04373026e-01 8.05087030e-01 8.05800974e-01 8.06514978e-01 8.07228923e-01 8.07942867e-01 8.08656871e-01 8.09370816e-01 8.10084760e-01 8.10798764e-01 8.11512709e-01 8.12226713e-01 8.12940657e-01 8.13654602e-01 8.14368606e-01 8.15082550e-01 8.15796494e-01 8.16510499e-01 8.17224443e-01 8.17938447e-01 8.18652391e-01 8.19366336e-01 8.20080340e-01 8.20794284e-01 8.21508229e-01 8.22222233e-01 8.22936177e-01 8.23650181e-01 8.24364126e-01 8.25078070e-01 8.25792074e-01 8.26506019e-01 8.27219963e-01 8.27933967e-01 8.28647912e-01 8.29361916e-01 8.30075860e-01 8.30789804e-01 8.31503808e-01 8.32217753e-01 8.32931697e-01 8.33645701e-01 8.34359646e-01 8.35073650e-01 8.35787594e-01 8.36501539e-01 8.37215543e-01 8.37929487e-01 8.38643491e-01 8.39357436e-01 8.40071380e-01 8.40785384e-01 8.41499329e-01 8.42213273e-01 8.42927277e-01 8.43641222e-01 8.44355226e-01 8.45069170e-01 8.45783114e-01 8.46497118e-01 8.47211063e-01 8.47925007e-01 8.48639011e-01 8.49352956e-01 8.50066960e-01 8.50780904e-01 8.51494849e-01 8.52208853e-01 8.52922797e-01 8.53636742e-01 8.54350746e-01 8.55064690e-01 8.55778694e-01 8.56492639e-01 8.57206583e-01 8.57920587e-01 8.58634531e-01 8.59348476e-01 8.60062480e-01 8.60776424e-01 8.61490428e-01 8.62204373e-01 8.62918317e-01 8.63632321e-01 8.64346266e-01 8.65060270e-01 8.65774214e-01 8.66488159e-01 8.67202163e-01 8.67916107e-01 8.68630052e-01 8.69344056e-01 8.70058000e-01 8.70772004e-01 8.71485949e-01 8.72199893e-01 8.72913897e-01 8.73627841e-01 8.74341786e-01 8.75055790e-01 8.75769734e-01 8.76483738e-01 8.77197683e-01 8.77911627e-01 8.78625631e-01 8.79339576e-01 8.80053520e-01 8.80767524e-01 8.81481469e-01 8.82195473e-01 8.82909417e-01 8.83623362e-01 8.84337366e-01 8.85051310e-01 8.85765254e-01 8.86479259e-01 8.87193203e-01 8.87907207e-01 8.88621151e-01 8.89335096e-01 8.90049100e-01 8.90763044e-01 8.91477048e-01 8.92190993e-01 8.92904937e-01 8.93618941e-01 8.94332886e-01 8.95046830e-01 8.95760834e-01 8.96474779e-01 8.97188783e-01 8.97902727e-01 8.98616672e-01 8.99330676e-01 9.00044620e-01 9.00758564e-01 9.01472569e-01 9.02186513e-01 9.02900517e-01 9.03614461e-01 9.04328406e-01 9.05042410e-01 9.05756354e-01 9.06470299e-01 9.07184303e-01 9.07898247e-01 9.08612251e-01 9.09326196e-01 9.10040140e-01 9.10754144e-01 9.11468089e-01 9.12182033e-01 9.12896037e-01 9.13609982e-01 9.14323986e-01 9.15037930e-01 9.15751874e-01 9.16465878e-01 9.17179823e-01 9.17893827e-01 9.18607771e-01 9.19321716e-01 9.20035720e-01 9.20749664e-01 9.21463609e-01 9.22177613e-01 9.22891557e-01 9.23605561e-01 9.24319506e-01 9.25033450e-01 9.25747454e-01 9.26461399e-01 9.27175343e-01 9.27889347e-01 9.28603292e-01 9.29317296e-01 9.30031240e-01 9.30745184e-01 9.31459188e-01 9.32173133e-01 9.32887077e-01 9.33601081e-01 9.34315026e-01 9.35029030e-01 9.35742974e-01 9.36456919e-01 9.37170923e-01 9.37884867e-01 9.38598812e-01 9.39312816e-01 9.40026760e-01 9.40740764e-01 9.41454709e-01 9.42168653e-01 9.42882657e-01 9.43596601e-01 9.44310546e-01 9.45024550e-01 9.45738494e-01 9.46452498e-01 9.47166443e-01 9.47880387e-01 9.48594391e-01 9.49308336e-01 9.50022340e-01 9.50736284e-01 9.51450229e-01 9.52164233e-01 9.52878177e-01 9.53592122e-01 9.54306126e-01 9.55020070e-01 9.55734074e-01 9.56448019e-01 9.57161963e-01 9.57875967e-01 9.58589911e-01 9.59303856e-01 9.60017860e-01 9.60731804e-01 9.61445808e-01 9.62159753e-01 9.62873697e-01 9.63587701e-01 9.64301646e-01 9.65015590e-01 9.65729594e-01 9.66443539e-01 9.67157543e-01 9.67871487e-01 9.68585432e-01 9.69299436e-01 9.70013380e-01 9.70727324e-01 9.71441329e-01 9.72155273e-01 9.72869277e-01 9.73583221e-01 9.74297166e-01 9.75011170e-01 9.75725114e-01 9.76439118e-01 9.77153063e-01 9.77867007e-01 9.78581011e-01 9.79294956e-01 9.80008900e-01 9.80722904e-01 9.81436849e-01 9.82150853e-01 9.82864797e-01 9.83578742e-01 9.84292746e-01 9.85006690e-01 9.85720634e-01 9.86434639e-01 9.87148583e-01 9.87862587e-01 9.88576531e-01 9.89290476e-01 9.90004480e-01 9.90718424e-01 9.91432369e-01 9.92146373e-01 9.92860317e-01 9.93574321e-01 9.94288266e-01 9.95002210e-01 9.95716214e-01 9.96430159e-01 9.97144103e-01 9.97858107e-01 9.98572052e-01 9.99286056e-01 1.00000000e+00 
            </Histogram>
            <HistogramBinning NBins="1401">
              1.46505728e-01 1.46605730e-01 1.96049392e-01 2.26745293e-01 2.41934180e-01 2.48740658e-01 2.59946436e-01 2.73233294e-01 2.87752807e-01 2.95623213e-01 3.02219898e-01 3.06989759e-01 3.12718689e-01 3.17115694e-01 3.22989404e-01 3.31833631e-01 3.38604778e-01 3.42721283e-01 3.48694205e-01 3.58046979e-01 3.63070041e-01 3.69981438e-01 3.75184625e-01 3.79230440e-01 3.81873667e-01 3.87769043e-01 3.94112587e-01 3.97254139e-01 3.99965763e-01 4.04880494e-01 4.10293519e-01 4.14017737e-01 4.20799166e-01 4.27668363e-01 4.31480408e-01 4.34738249e-01 4.38647211e-01 4.42008823e-01 4.43891495e-01 4.48586136e-01 4.50744748e-01 4.53953534e-01 4.57280964e-01 4.62737352e-01 4.66108114e-01 4.70164150e-01 4.72838163e-01 4.74878162e-01 4.79578495e-01 4.82019901e-01 4.84209299e-01 4.89090949e-01 4.91902918e-01 4.94331777e-01 4.97065097e-01 4.98380989e-01 5.00269353e-01 5.02633214e-01 5.04103065e-01 5.06838679e-01 5.11092007e-01 5.13320148e-01 5.15404642e-01 5.18977225e-01 5.20810843e-01 5.22604525e-01 5.24101734e-01 5.25992393e-01 5.27399540e-01 5.29331207e-01 5.31395197e-01 5.32910645e-01 5.37075043e-01 5.38875580e-01 5.41721761e-01 5.43559968e-01 5.45358181e-01 5.47265947e-01 5.48958182e-01 5.52082598e-01 5.53692698e-01 5.55847883e-01 5.57631314e-01 5.59337199e-01 5.60705602e-01 5.62684059e-01 5.64295292e-01 5.65265656e-01 5.67886114e-01 5.69431186e-01 5.71039081e-01 5.73812246e-01 5.75575173e-01 5.76958418e-01 5.77988088e-01 5.79062223e-01 5.80381572e-01 5.82452416e-01 5.84305346e-01 5.85898340e-01 5.87843716e-01 5.89167595e-01 5.90277135e-01 5.91453969e-01 5.93164444e-01 5.95019639e-01 5.96986711e-01 5.98098516e-01 6.01065576e-01 6.03134096e-01 6.03875279e-01 6.05244815e-01 6.06364548e-01 6.08305395e-01 6.10148132e-01 6.10889316e-01 6.11807287e-01 6.13566756e-01 6.15591943e-01 6.17146194e-01 6.18660510e-01 6.20058537e-01 6.22162402e-01 6.23314083e-01 6.24510288e-01 6.25321031e-01 6.26811445e-01 6.29471719e-01 6.30720377e-01 6.32007778e-01 6.33362472e-01 6.35048985e-01 6.36569023e-01 6.37312472e-01 6.39035463e-01 6.40668392e-01 6.41548753e-01 6.43197596e-01 6.44951403e-01 6.45935476e-01 6.46985710e-01 6.48152232e-01 6.48490906e-01 6.49737239e-01 6.50901496e-01 6.52078331e-01 6.53011084e-01 6.54423952e-01 6.55454755e-01 6.56742156e-01 6.57853961e-01 6.59015954e-01 6.60553098e-01 6.61566794e-01 6.62813187e-01 6.63958013e-01 6.64519072e-01 6.66644573e-01 6.67800844e-01 6.68635547e-01 6.69423521e-01 6.70283258e-01 6.71312988e-01 6.72220707e-01 6.73625529e-01 6.74518406e-01 6.75614238e-01 6.76292717e-01 6.77209556e-01 6.78216398e-01 6.78723812e-01 6.80145800e-01 6.81117356e-01 6.81798100e-01 6.82641923e-01 6.83083236e-01 6.83571279e-01 6.84228063e-01 6.85027480e-01 6.85785770e-01 6.86682045e-01 6.87471151e-01 6.88180387e-01 6.88954651e-01 6.90199852e-01 6.91491842e-01 6.92393839e-01 6.93330050e-01 6.94065511e-01 6.95346117e-01 6.96049631e-01 6.97005272e-01 6.97999597e-01 6.98627889e-01 6.99231088e-01 7.00700998e-01 7.01210678e-01 7.01884568e-01 7.02604115e-01 7.03749001e-01 7.04324841e-01 7.04674959e-01 7.05133319e-01 7.05758214e-01 7.06191540e-01 7.06970334e-01 7.07630575e-01 7.08522320e-01 7.08962500e-01 7.09304571e-01 7.10743666e-01 7.11455226e-01 7.12242007e-01 7.13326395e-01 7.13633180e-01 7.14307129e-01 7.14945674e-01 7.15872705e-01 7.16512442e-01 7.17204630e-01 7.17856884e-01 7.18354046e-01 7.19732702e-01 7.20705390e-01 7.21066833e-01 7.21735060e-01 7.22744226e-01 7.23535597e-01 7.24085212e-01 7.24516213e-01 7.24900544e-01 7.25361228e-01 7.25851536e-01 7.26316810e-01 7.27036297e-01 7.27704585e-01 7.28541553e-01 7.28818595e-01 7.29272485e-01 7.29669273e-01 7.30092347e-01 7.30509698e-01 7.31143713e-01 7.32050240e-01 7.32775509e-01 7.33344555e-01 7.33792663e-01 7.34322906e-01 7.34938622e-01 7.35711753e-01 7.36484945e-01 7.37122357e-01 7.37788260e-01 7.38400638e-01 7.39252448e-01 7.39743888e-01 7.40328848e-01 7.40773618e-01 7.41351724e-01 7.41881967e-01 7.42675662e-01 7.43390620e-01 7.43935645e-01 7.44385004e-01 7.44790912e-01 7.45473921e-01 7.46170640e-01 7.46456861e-01 7.46832073e-01 7.47565210e-01 7.48024821e-01 7.48409092e-01 7.48908579e-01 7.49443352e-01 7.50024915e-01 7.50468433e-01 7.51021504e-01 7.51812935e-01 7.52386510e-01 7.53042102e-01 7.53852963e-01 7.54725277e-01 7.55107284e-01 7.55394638e-01 7.56190479e-01 7.56770968e-01 7.57606864e-01 7.57915854e-01 7.58289874e-01 7.58857727e-01 7.59133637e-01 7.59676456e-01 7.60296762e-01 7.60975242e-01 7.61539698e-01 7.62016356e-01 7.62603581e-01 7.63462245e-01 7.64190853e-01 7.64552355e-01 7.64831781e-01 7.65135050e-01 7.65591204e-01 7.66335845e-01 7.67063379e-01 7.67300546e-01 7.67843366e-01 7.68309712e-01 7.68610775e-01 7.68880963e-01 7.69582272e-01 7.70386219e-01 7.70956337e-01 7.71472931e-01 7.72033989e-01 7.72566497e-01 7.72905171e-01 7.73224473e-01 7.73568809e-01 7.73808300e-01 7.74184585e-01 7.74632692e-01 7.74982750e-01 7.75718272e-01 7.76118517e-01 7.76993155e-01 7.77424216e-01 7.77968109e-01 7.78337538e-01 7.79016018e-01 7.79555440e-01 7.80103862e-01 7.80672908e-01 7.81014979e-01 7.81489372e-01 7.81995654e-01 7.82460928e-01 7.82972872e-01 7.83623993e-01 7.83992350e-01 7.84418821e-01 7.84742713e-01 7.85280883e-01 7.85676539e-01 7.86302567e-01 7.86742806e-01 7.87019908e-01 7.87487388e-01 7.87771285e-01 7.88185239e-01 7.88423598e-01 7.88665295e-01 7.89358556e-01 7.89766848e-01 7.90266335e-01 7.90830791e-01 7.91331351e-01 7.91538835e-01 7.91872978e-01 7.92252779e-01 7.92817175e-01 7.93401062e-01 7.93781817e-01 7.94256270e-01 7.94669032e-01 7.94900477e-01 7.95313299e-01 7.95610905e-01 7.96006560e-01 7.96425104e-01 7.97149181e-01 7.97436535e-01 7.97964573e-01 7.98341930e-01 7.98661232e-01 7.99067140e-01 7.99302042e-01 7.99864233e-01 8.00571263e-01 8.01110566e-01 8.01271379e-01 8.01716089e-01 8.01972628e-01 8.02378595e-01 8.02623868e-01 8.02890658e-01 8.03148329e-01 8.03572536e-01 8.04143786e-01 8.04361641e-01 8.04565728e-01 8.04897547e-01 8.05409551e-01 8.05801809e-01 8.06096017e-01 8.06505382e-01 8.06879461e-01 8.07161093e-01 8.07650268e-01 8.07942212e-01 8.08235228e-01 8.08497548e-01 8.08823586e-01 8.09089303e-01 8.09462190e-01 8.09835076e-01 8.10292304e-01 8.10643554e-01 8.11184049e-01 8.11397254e-01 8.11815858e-01 8.12278748e-01 8.12763393e-01 8.13072443e-01 8.13203573e-01 8.13390613e-01 8.13750923e-01 8.13944757e-01 8.14448774e-01 8.14804554e-01 8.15086186e-01 8.15477312e-01 8.15838814e-01 8.16357672e-01 8.16594839e-01 8.16956282e-01 8.17221999e-01 8.17419231e-01 8.17656457e-01 8.17925572e-01 8.18218648e-01 8.18664551e-01 8.18908453e-01 8.19206119e-01 8.19620013e-01 8.19819629e-01 8.20140004e-01 8.20345342e-01 8.20649743e-01 8.21136653e-01 8.21581423e-01 8.21921229e-01 8.22111666e-01 8.22542667e-01 8.23024988e-01 8.23405862e-01 8.23685288e-01 8.23925853e-01 8.24171007e-01 8.24419618e-01 8.24856400e-01 8.25173318e-01 8.25448155e-01 8.25722992e-01 8.26016068e-01 8.26319337e-01 8.26553106e-01 8.26922596e-01 8.27320516e-01 8.27643275e-01 8.28007042e-01 8.28254461e-01 8.28603387e-01 8.29108536e-01 8.29329729e-01 8.29630792e-01 8.29868019e-01 8.30150783e-01 8.30411911e-01 8.30910265e-01 8.31110954e-01 8.31420004e-01 8.31845284e-01 8.32159996e-01 8.32491815e-01 8.32859039e-01 8.33244443e-01 8.33746135e-01 8.34067762e-01 8.34438324e-01 8.34654987e-01 8.34926367e-01 8.35404158e-01 8.35604846e-01 8.35899115e-01 8.36268485e-01 8.36399674e-01 8.36647093e-01 8.36880863e-01 8.37252617e-01 8.37677956e-01 8.37937891e-01 8.38161409e-01 8.38408887e-01 8.38586748e-01 8.38809073e-01 8.39183092e-01 8.39485347e-01 8.39925468e-01 8.40291560e-01 8.40421557e-01 8.40606213e-01 8.40843499e-01 8.41184437e-01 8.41367960e-01 8.41566443e-01 8.41881096e-01 8.42175305e-01 8.42391968e-01 8.42715859e-01 8.43032777e-01 8.43382895e-01 8.43768358e-01 8.44128609e-01 8.44508350e-01 8.44793439e-01 8.45036387e-01 8.45248461e-01 8.45579147e-01 8.45909834e-01 8.46172154e-01 8.46391022e-01 8.46993148e-01 8.47232580e-01 8.47514272e-01 8.47834647e-01 8.48044515e-01 8.48310232e-01 8.48516583e-01 8.48797023e-01 8.49038839e-01 8.49159658e-01 8.49353552e-01 8.49710464e-01 8.49811971e-01 8.49980772e-01 8.50236177e-01 8.50482464e-01 8.50670576e-01 8.50997865e-01 8.51412892e-01 8.51626158e-01 8.51823449e-01 8.51980865e-01 8.52213383e-01 8.52560103e-01 8.52846324e-01 8.53203237e-01 8.53601217e-01 8.53972912e-01 8.54258001e-01 8.54416549e-01 8.54797304e-01 8.54955852e-01 8.55204463e-01 8.55486095e-01 8.55706215e-01 8.55879486e-01 8.56073320e-01 8.56293440e-01 8.56675446e-01 8.56882930e-01 8.57128084e-01 8.57416689e-01 8.57846558e-01 8.58049512e-01 8.58504534e-01 8.58961761e-01 8.59108865e-01 8.59292448e-01 8.59693885e-01 8.59948158e-01 8.60105455e-01 8.60503495e-01 8.60633433e-01 8.60837519e-01 8.60982418e-01 8.61184239e-01 8.61545742e-01 8.61756682e-01 8.62033784e-01 8.62494409e-01 8.62721324e-01 8.63037229e-01 8.63261819e-01 8.63611937e-01 8.63838792e-01 8.64087462e-01 8.64349663e-01 8.64631355e-01 8.64902735e-01 8.65265310e-01 8.65398765e-01 8.65584612e-01 8.65801334e-01 8.65965486e-01 8.66412520e-01 8.66776347e-01 8.67045403e-01 8.67270052e-01 8.67577910e-01 8.67728412e-01 8.68007779e-01 8.68238151e-01 8.68416071e-01 8.68586004e-01 8.68877828e-01 8.69319201e-01 8.69470835e-01 8.69640768e-01 8.69901836e-01 8.70185792e-01 8.70452642e-01 8.70695531e-01 8.71062636e-01 8.71665895e-01 8.71925950e-01 8.72393489e-01 8.72558773e-01 8.72855246e-01 8.73093545e-01 8.73196185e-01 8.73360336e-01 8.73606741e-01 8.73851895e-01 8.74248683e-01 8.74435723e-01 8.74586284e-01 8.74755025e-01 8.74942005e-01 8.75162125e-01 8.75347912e-01 8.75662684e-01 8.75870168e-01 8.76093686e-01 8.76361728e-01 8.76797318e-01 8.77012789e-01 8.77417624e-01 8.77536178e-01 8.77782464e-01 8.78068745e-01 8.78349185e-01 8.78678739e-01 8.78977597e-01 8.79319668e-01 8.79589915e-01 8.79949093e-01 8.80247831e-01 8.80440533e-01 8.80673170e-01 8.80852222e-01 8.81184042e-01 8.81625295e-01 8.81889880e-01 8.82377923e-01 8.82552445e-01 8.82736027e-01 8.82942379e-01 8.83233190e-01 8.83657336e-01 8.83813560e-01 8.84094119e-01 8.84314179e-01 8.84620905e-01 8.84914041e-01 8.85048509e-01 8.85252595e-01 8.85697365e-01 8.85999560e-01 8.86253893e-01 8.86386096e-01 8.86667848e-01 8.86963069e-01 8.87294888e-01 8.87573183e-01 8.87943745e-01 8.88234556e-01 8.88499141e-01 8.88756812e-01 8.88951778e-01 8.89200449e-01 8.89430702e-01 8.89617741e-01 8.89695287e-01 8.89899373e-01 8.90103459e-01 8.90295148e-01 8.90556216e-01 8.90758038e-01 8.90994072e-01 8.91251743e-01 8.91442180e-01 8.91720533e-01 8.91930282e-01 8.92238140e-01 8.92448008e-01 8.92648697e-01 8.92924666e-01 8.93080831e-01 8.93276989e-01 8.93583775e-01 8.93851697e-01 8.94163013e-01 8.94444704e-01 8.94739985e-01 8.94966960e-01 8.95204127e-01 8.95434499e-01 8.95657957e-01 8.95982921e-01 8.96368325e-01 8.96669447e-01 8.96873534e-01 8.97115290e-01 8.97442460e-01 8.97660315e-01 8.97874713e-01 8.98136973e-01 8.98391306e-01 8.98685455e-01 8.98945451e-01 8.99328589e-01 8.99469972e-01 8.99807513e-01 9.00131345e-01 9.00524735e-01 9.00744855e-01 9.00861204e-01 9.00999188e-01 9.01206672e-01 9.01694715e-01 9.01953638e-01 9.02353823e-01 9.02547657e-01 9.02681112e-01 9.03150916e-01 9.03385758e-01 9.03689146e-01 9.03993547e-01 9.04160082e-01 9.04399514e-01 9.04803157e-01 9.05226231e-01 9.05503333e-01 9.05686915e-01 9.05881941e-01 9.06138480e-01 9.06430364e-01 9.06569481e-01 9.06726897e-01 9.07089472e-01 9.07453299e-01 9.07796502e-01 9.08097565e-01 9.08211589e-01 9.08403158e-01 9.08676863e-01 9.08959627e-01 9.09322202e-01 9.09526289e-01 9.09753263e-01 9.09879863e-01 9.10161495e-01 9.10321116e-01 9.10651803e-01 9.10818338e-01 9.11039591e-01 9.11366761e-01 9.11532164e-01 9.11658704e-01 9.11887884e-01 9.12268758e-01 9.12551582e-01 9.12914217e-01 9.13098931e-01 9.13526475e-01 9.13760245e-01 9.13971245e-01 9.14081872e-01 9.14324820e-01 9.14584756e-01 9.14833307e-01 9.15031731e-01 9.15170848e-01 9.15468454e-01 9.15680587e-01 9.16001022e-01 9.16246176e-01 9.16595101e-01 9.16721702e-01 9.17068303e-01 9.17289555e-01 9.17609930e-01 9.17788982e-01 9.18078601e-01 9.18296456e-01 9.18618023e-01 9.18828964e-01 9.18987453e-01 9.19140279e-01 9.19303358e-01 9.19556439e-01 9.19738948e-01 9.20091331e-01 9.20442522e-01 9.20571387e-01 9.20813143e-01 9.21090245e-01 9.21258926e-01 9.21704769e-01 9.21959102e-01 9.22190607e-01 9.22386706e-01 9.22628462e-01 9.22836006e-01 9.23113108e-01 9.23362792e-01 9.23589766e-01 9.23921585e-01 9.24260259e-01 9.24514472e-01 9.24784780e-01 9.24942195e-01 9.25344706e-01 9.25589859e-01 9.25894260e-01 9.26196516e-01 9.26589906e-01 9.26925123e-01 9.27134991e-01 9.27504480e-01 9.27813470e-01 9.28016424e-01 9.28355098e-01 9.28784966e-01 9.29071188e-01 9.29344893e-01 9.29553509e-01 9.29888844e-01 9.30232048e-01 9.30470347e-01 9.30724621e-01 9.30958390e-01 9.31201279e-01 9.31625485e-01 9.31856990e-01 9.32160258e-01 9.32445347e-01 9.32585597e-01 9.32851315e-01 9.33083951e-01 9.33516145e-01 9.33973372e-01 9.34174120e-01 9.34493363e-01 9.34922099e-01 9.35062349e-01 9.35264170e-01 9.35491085e-01 9.35768187e-01 9.36183274e-01 9.36444402e-01 9.36648488e-01 9.36940491e-01 9.37096655e-01 9.37455833e-01 9.37840104e-01 9.38175440e-01 9.38362360e-01 9.38633800e-01 9.38889265e-01 9.39073920e-01 9.39438879e-01 9.39837992e-01 9.40101385e-01 9.40371633e-01 9.40751374e-01 9.41259980e-01 9.41595137e-01 9.41882491e-01 9.42462981e-01 9.42864358e-01 9.43223536e-01 9.43443596e-01 9.43708181e-01 9.44162071e-01 9.44667161e-01 9.44903195e-01 9.45209920e-01 9.45509851e-01 9.45789278e-01 9.46105063e-01 9.46347952e-01 9.46594238e-01 9.46963727e-01 9.47365165e-01 9.47811007e-01 9.48114276e-01 9.48705018e-01 9.49094951e-01 9.49293375e-01 9.49531674e-01 9.50076818e-01 9.50331032e-01 9.50788260e-01 9.51188564e-01 9.51590002e-01 9.51982260e-01 9.52266097e-01 9.52445149e-01 9.52731371e-01 9.52949226e-01 9.53284442e-01 9.53676701e-01 9.54015434e-01 9.54301655e-01 9.54757750e-01 9.55005169e-01 9.55543339e-01 9.55814779e-01 9.56191063e-01 9.56772625e-01 9.56959665e-01 9.57312047e-01 9.57603931e-01 9.57922041e-01 9.58207190e-01 9.58598316e-01 9.58991706e-01 9.59409058e-01 9.59685028e-01 9.60533440e-01 9.60820794e-01 9.61228967e-01 9.61695373e-01 9.61988389e-01 9.62596238e-01 9.62822020e-01 9.63199377e-01 9.63547230e-01 9.63885903e-01 9.64255273e-01 9.64655578e-01 9.65036452e-01 9.65328336e-01 9.65527892e-01 9.65934992e-01 9.66435552e-01 9.66876924e-01 9.67170000e-01 9.67569053e-01 9.67966974e-01 9.68376398e-01 9.68660355e-01 9.69224811e-01 9.69757318e-01 9.70016181e-01 9.70399320e-01 9.70782459e-01 9.71249998e-01 9.71661627e-01 9.71939862e-01 9.72563624e-01 9.72984374e-01 9.73325312e-01 9.73731279e-01 9.74132657e-01 9.74966168e-01 9.75242138e-01 9.75448608e-01 9.75739360e-01 9.76197720e-01 9.76706326e-01 9.77235436e-01 9.77731466e-01 9.78366613e-01 9.78986919e-01 9.79374647e-01 9.79960799e-01 9.80562866e-01 9.81414676e-01 9.81675804e-01 9.82337117e-01 9.82779622e-01 9.83324647e-01 9.83829856e-01 9.84211862e-01 9.84775186e-01 9.85314488e-01 9.85728443e-01 9.86475289e-01 9.86989617e-01 9.87357914e-01 9.87655520e-01 9.88002241e-01 9.89117444e-01 9.89412785e-01 9.89836931e-01 9.90704715e-01 9.91325021e-01 9.92144883e-01 9.92557704e-01 9.93265867e-01 9.93872523e-01 9.94389057e-01 9.94936407e-01 9.95639980e-01 9.96321857e-01 9.97210205e-01 9.97846425e-01 9.98449683e-01 9.98733640e-01 9.99214828e-01 1.00009167e+00 1.00068820e+00 1.00110197e+00 1.00143838e+00 1.00222862e+00 1.00285816e+00 1.00361526e+00 1.00407827e+00 1.00498474e+00 1.00592089e+00 1.00675452e+00 1.00791204e+00 1.00835097e+00 1.00896680e+00 1.00967479e+00 1.01024616e+00 1.01098514e+00 1.01186311e+00 1.01274121e+00 1.01323259e+00 1.01396585e+00 1.01454508e+00 1.01508784e+00 1.01592267e+00 1.01725113e+00 1.01798773e+00 1.01938677e+00 1.02010071e+00 1.02091146e+00 1.02188182e+00 1.02273142e+00 1.02365506e+00 1.02435637e+00 1.02487171e+00 1.02574861e+00 1.02618766e+00 1.02708614e+00 1.02815700e+00 1.02882409e+00 1.02972484e+00 1.03018439e+00 1.03100431e+00 1.03159726e+00 1.03240120e+00 1.03289378e+00 1.03325987e+00 1.03407395e+00 1.03455174e+00 1.03562713e+00 1.03627586e+00 1.03698862e+00 1.03794873e+00 1.03849840e+00 1.03938901e+00 1.04070604e+00 1.04121912e+00 1.04247236e+00 1.04338694e+00 1.04502439e+00 1.04637098e+00 1.04732776e+00 1.04807580e+00 1.04933929e+00 1.05033016e+00 1.05214894e+00 1.05311942e+00 1.05402017e+00 1.05527914e+00 1.05589032e+00 1.05656660e+00 1.05873084e+00 1.05975032e+00 1.06085300e+00 1.06132162e+00 1.06234443e+00 1.06294537e+00 1.06377792e+00 1.06448936e+00 1.06577218e+00 1.06655216e+00 1.06737208e+00 1.06791484e+00 1.06885898e+00 1.07038021e+00 1.07086825e+00 1.07197654e+00 1.07351720e+00 1.07502806e+00 1.07652986e+00 1.07745576e+00 1.07911146e+00 1.07964635e+00 1.08106720e+00 1.08260310e+00 1.08327472e+00 1.08443332e+00 1.08564210e+00 1.08820772e+00 1.08897066e+00 1.09095824e+00 1.09224331e+00 1.09377933e+00 1.09529352e+00 1.09657764e+00 1.09820712e+00 1.09916723e+00 1.10062110e+00 1.10163832e+00 1.10269880e+00 1.10357904e+00 1.10484719e+00 1.10593379e+00 1.10706949e+00 1.10896707e+00 1.10957026e+00 1.11133313e+00 1.11254752e+00 1.11487377e+00 1.11684775e+00 1.11798465e+00 1.11950004e+00 1.12159026e+00 1.12300539e+00 1.12497115e+00 1.12669659e+00 1.12842405e+00 1.13056445e+00 1.13201487e+00 1.13328636e+00 1.13588047e+00 1.13830364e+00 1.13918054e+00 1.13992631e+00 1.14210773e+00 1.14400065e+00 1.14525497e+00 1.14691985e+00 1.14913201e+00 1.15097928e+00 1.15232491e+00 1.15435469e+00 1.15627038e+00 1.15823162e+00 1.15995347e+00 1.16169822e+00 1.16427529e+00 1.16510773e+00 1.16681814e+00 1.16861987e+00 1.17092323e+00 1.17312407e+00 1.17423010e+00 1.17670465e+00 1.17866588e+00 1.18094659e+00 1.18378592e+00 1.18517709e+00 1.18785679e+00 1.18990934e+00 1.19151711e+00 1.19458461e+00 1.19661438e+00 1.19906604e+00 1.20216763e+00 1.20354736e+00 1.20548594e+00 1.20782351e+00 1.21073139e+00 1.21326292e+00 1.21587408e+00 1.21796083e+00 1.22013891e+00 1.22178090e+00 1.22351420e+00 1.22565794e+00 1.22752810e+00 1.22979724e+00 1.23207784e+00 1.23448396e+00 1.23791623e+00 1.24115479e+00 1.24273980e+00 1.24393702e+00 1.24733520e+00 1.25152004e+00 1.25447345e+00 1.25821364e+00 1.26202238e+00 1.26459944e+00 1.26626420e+00 1.26887560e+00 1.27176058e+00 1.27440608e+00 1.27908123e+00 1.28067768e+00 1.28413284e+00 1.28746247e+00 1.29098606e+00 1.29603767e+00 1.30046201e+00 1.30221808e+00 1.30374610e+00 1.30669951e+00 1.31075895e+00 1.31224144e+00 1.31698513e+00 1.31996119e+00 1.32300591e+00 1.32887852e+00 1.33195722e+00 1.33493352e+00 1.33792114e+00 1.34033859e+00 1.34508216e+00 1.34819531e+00 1.35008824e+00 1.35433006e+00 1.35637116e+00 1.35864043e+00 1.36147988e+00 1.36482096e+00 1.36999786e+00 1.37392056e+00 1.37637222e+00 1.38219917e+00 1.38436580e+00 1.38861907e+00 1.39242768e+00 1.39688635e+00 1.40077484e+00 1.40679562e+00 1.41118574e+00 1.41525662e+00 1.41901970e+00 1.42270279e+00 1.42673957e+00 1.43306828e+00 1.43778908e+00 1.44085658e+00 1.44415200e+00 1.44748175e+00 1.45105088e+00 1.45734537e+00 1.46164417e+00 1.46544147e+00 1.46860003e+00 1.47312713e+00 1.48108649e+00 1.48567057e+00 1.49016333e+00 1.49492979e+00 1.50001562e+00 1.50510132e+00 1.51096261e+00 1.51552379e+00 1.51984549e+00 1.52590060e+00 1.53056443e+00 1.53658521e+00 1.54050779e+00 1.55183113e+00 1.55863881e+00 1.56233323e+00 1.56809187e+00 1.57551527e+00 1.58033884e+00 1.58401048e+00 1.58773947e+00 1.59645128e+00 1.60324752e+00 1.61021471e+00 1.61763811e+00 1.62638426e+00 1.63088858e+00 1.63543844e+00 1.63970304e+00 1.64602041e+00 1.65531385e+00 1.66112936e+00 1.67299998e+00 1.67691123e+00 1.68655837e+00 1.69371939e+00 1.70123398e+00 1.71245468e+00 1.71797371e+00 1.72302532e+00 1.73040295e+00 1.74229646e+00 1.75293553e+00 1.75958347e+00 1.76718938e+00 1.78116953e+00 1.79093051e+00 1.80483079e+00 1.81734002e+00 1.81971169e+00 1.82824123e+00 1.83639455e+00 1.84731865e+00 1.86067164e+00 1.87155008e+00 1.87817526e+00 1.88816440e+00 1.89664829e+00 1.91063976e+00 1.92273843e+00 1.92977417e+00 1.94040167e+00 1.95106375e+00 1.96189654e+00 1.96614993e+00 1.97335660e+00 1.99104285e+00 2.00187564e+00 2.01479530e+00 2.02489853e+00 2.03576565e+00 2.05691814e+00 2.06991768e+00 2.08381820e+00 2.09941745e+00 2.11295295e+00 2.12896276e+00 2.14028597e+00 2.15980816e+00 2.18499756e+00 2.20226169e+00 2.21192002e+00 2.22916150e+00 2.24651694e+00 2.26280046e+00 2.28320074e+00 2.30950737e+00 2.32930326e+00 2.34957790e+00 2.36995506e+00 2.39894176e+00 2.42051625e+00 2.43681121e+00 2.45107651e+00 2.46653891e+00 2.49757814e+00 2.50509286e+00 2.51900458e+00 2.55515218e+00 2.57919002e+00 2.59773111e+00 2.62918067e+00 2.66661716e+00 2.69926405e+00 2.73260665e+00 2.76405621e+00 2.78821921e+00 2.81580329e+00 2.84642053e+00 2.89788270e+00 2.93335772e+00 2.98105645e+00 3.01225519e+00 3.06423044e+00 3.12624025e+00 3.19559360e+00 3.26185679e+00 3.34736824e+00 3.40194345e+00 3.46215153e+00 3.51827741e+00 3.58806419e+00 3.65432739e+00 3.73656631e+00 3.81793833e+00 3.88845515e+00 3.99019313e+00 4.06584120e+00 4.20648623e+00 4.31266022e+00 4.41625690e+00 4.51448298e+00 4.61836481e+00 4.78999233e+00 5.03646946e+00 5.37826490e+00 5.76301575e+00 6.74551439e+00 7.20737314e+00 8.09505558e+00 1.30981255e+01 
            </HistogramBinning>
          </PDF>
        </CumulativePDF_cls2>
      </Variable>
      <Variable VarIndex="1">
        <CumulativePDF_cls0>
          <PDF Name="GaussTransform var1 cls0" MinNSmooth="0" MaxNSmooth="0" InterpolMethod="1" KDE_type="0" KDE_iter="1" KDE_border="1" KDE_finefactor="0.0000000000000000e+00">
            <Histogram Name="Cumulative_Var1_cls0_original" NBins="701" XMin="4.1923341155052185e-01" XMax="7.3919677734375000e+00" HasEquidistantBins="0">
